geration,id,w1,w2,w3
0,0,1,1,1
0,0,-4.037763791450288,0.7658240184012541,3.044266248688249
0,1,-4.585401822500259,7.512252112620118,-13.61861367617312
0,2,1.740829670510525,0.3473098074027803,7.706989675103003
0,3,3.367313023224181,10.429793840240237,-12.330426451194661
0,4,-18.338802279099813,-14.199546584247917,-3.7313173119933474
0,5,-13.612217036228827,0.3725117944942866,9.699161862765266
0,6,11.817049255314622,-3.0540537515994934,-3.4030712263622966
0,7,-13.79987931500108,-17.64727465060252,4.264838393122329
0,8,3.530518495438308,16.53581306219297,-1.579410143738869
0,9,4.282294086562079,16.009894674383993,-13.788704523490036
0,10,2.5510896703213284,9.721340871340075,2.1576613288249114
0,11,11.364696866761062,-18.22722636813916,-12.1663491975198
0,12,-2.346184877072549,3.717229814462506,-13.096735663644395
0,13,-0.29760496824989247,4.6219440479328355,9.026216772170393
0,14,-8.012470573323682,14.510739012648209,-8.553910845322399
1,0,-2.346184877072549,3.717229814462506,-13.096735663644395
1,1,-8.012470573323682,14.510739012648209,-8.553910845322399
1,2,-4.585401822500259,7.512252112620118,-13.61861367617312
1,3,3.530518495438308,16.53581306219297,-1.579410143738869
1,4,4.282294086562079,16.009894674383993,-13.788704523490036
1,5,-2.346184877072549,15.20316429599817,-8.553910845322399
1,6,-8.012470573323682,7.512252112620118,-13.283432064756703
1,7,-5.215824926329455,16.53581306219297,-1.579410143738869
1,8,4.509497952496199,16.009894674383993,-13.788704523490036
1,9,4.282294086562079,3.717229814462506,-13.375157821310152
1,10,-2.346184877072549,14.251599588203707,-8.553910845322399
1,11,-7.809354513187172,7.512252112620118,-13.61861367617312
1,12,-4.559783552136048,16.53581306219297,-1.579410143738869
1,13,3.6303865553768384,16.009894674383993,-13.788704523490036
1,14,4.282294086562079,3.717229814462506,-13.66594540251789
2,0,-2.346184877072549,15.20316429599817,-8.553910845322399
2,1,-4.585401822500259,7.512252112620118,-13.61861367617312
2,2,-5.215824926329455,16.53581306219297,-1.579410143738869
2,3,-8.012470573323682,14.510739012648209,-8.553910845322399
2,4,-7.809354513187172,7.512252112620118,-13.61861367617312
2,5,-2.346184877072549,7.512252112620118,-14.04305253211012
2,6,-4.585401822500259,16.53581306219297,-1.7504450630520219
2,7,-5.215824926329455,15.031843370519692,-8.553910845322399
2,8,-8.012470573323682,7.512252112620118,-13.584424420209803
2,9,-7.809354513187172,15.20316429599817,-8.173773966929557
2,10,-2.346184877072549,7.216302120641063,-13.61861367617312
2,11,-4.585401822500259,16.53581306219297,-2.3830856213413645
2,12,-5.215824926329455,14.510739012648209,-8.04670882911532
2,13,-8.012470573323682,6.604607038687169,-13.61861367617312
2,14,-8.162202254237657,15.20316429599817,-8.553910845322399
3,0,-2.346184877072549,15.20316429599817,-8.553910845322399
3,1,-5.215824926329455,16.53581306219297,-1.579410143738869
3,2,-4.585401822500259,16.53581306219297,-2.3830856213413645
3,3,-8.012470573323682,14.510739012648209,-8.553910845322399
3,4,-8.162202254237657,15.20316429599817,-8.553910845322399
3,5,-2.3434730844684197,16.53581306219297,-1.579410143738869
3,6,-5.215824926329455,16.3716444757279,-2.3830856213413645
3,7,-4.585401822500259,14.510739012648209,-8.022980931705462
3,8,-7.708688266139332,15.20316429599817,-8.553910845322399
3,9,-8.162202254237657,15.248336104416493,-8.553910845322399
3,10,-2.346184877072549,16.53581306219297,-1.6791510403341028
3,11,-4.732794966507386,16.53581306219297,-2.3830856213413645
3,12,-4.585401822500259,14.510739012648209,-8.994570624939925
3,13,-8.728377011118988,15.20316429599817,-8.553910845322399
3,14,-8.162202254237657,15.20316429599817,-8.004483572247183
4,0,-5.215824926329455,16.53581306219297,-1.579410143738869
4,1,-8.728377011118988,15.20316429599817,-8.553910845322399
4,2,-2.3434730844684197,16.53581306219297,-1.579410143738869
4,3,-4.585401822500259,14.510739012648209,-8.994570624939925
4,4,-4.585401822500259,14.510739012648209,-8.022980931705462
4,5,-5.215824926329455,15.20316429599817,-9.517646117388734
4,6,-8.728377011118988,16.66002517164342,-1.579410143738869
4,7,-2.3434730844684197,14.30337738127029,-8.994570624939925
4,8,-4.085693735184789,14.510739012648209,-8.022980931705462
4,9,-4.902995119040187,16.53581306219297,-1.579410143738869
4,10,-5.842851428658601,15.20316429599817,-8.553910845322399
4,11,-8.728377011118988,16.53581306219297,-2.2715572984143675
4,12,-2.442729596711745,14.510739012648209,-8.994570624939925
4,13,-4.714864898667441,14.510739012648209,-8.022980931705462
4,14,-4.585401822500259,17.498409138548947,-1.579410143738869
5,0,-4.714864898667441,14.510739012648209,-8.022980931705462
5,1,-4.902995119040187,16.53581306219297,-1.579410143738869
5,2,-2.442729596711745,14.510739012648209,-8.994570624939925
5,3,-5.215824926329455,15.20316429599817,-9.517646117388734
5,4,-4.585401822500259,17.498409138548947,-1.579410143738869
5,5,-4.294326942021102,16.53581306219297,-1.579410143738869
5,6,-4.902995119040187,14.510739012648209,-8.328205951422548
5,7,-2.442729596711745,15.20316429599817,-9.190658132323318
5,8,-5.215824926329455,17.498409138548947,-1.2023775706278645
5,9,-4.585401822500259,15.136698755635193,-8.022980931705462
5,10,-4.714864898667441,17.151821531199563,-1.579410143738869
5,11,-4.902995119040187,14.510739012648209,-9.357921038845873
5,12,-2.442729596711745,14.86837357192104,-9.517646117388734
5,13,-5.215824926329455,16.745752518418772,-1.579410143738869
5,14,-4.585401822500259,14.827864466483934,-8.022980931705462
6,0,-5.215824926329455,17.498409138548947,-1.2023775706278645
6,1,-5.215824926329455,16.745752518418772,-1.579410143738869
6,2,-5.215824926329455,15.20316429599817,-9.517646117388734
6,3,-4.902995119040187,16.53581306219297,-1.579410143738869
6,4,-4.294326942021102,16.53581306219297,-1.579410143738869
6,5,-5.336136146811759,16.745752518418772,-1.579410143738869
6,6,-6.1298632300751645,15.20316429599817,-9.517646117388734
6,7,-5.215824926329455,16.53581306219297,-2.2893462465045147
6,8,-4.902995119040187,15.94631067887741,-1.579410143738869
6,9,-4.294326942021102,17.498409138548947,-0.6319098097335558
6,10,-4.226158019167037,16.745752518418772,-1.579410143738869
6,11,-5.215824926329455,15.22726592132098,-9.517646117388734
6,12,-6.053818533101104,16.53581306219297,-1.579410143738869
6,13,-4.902995119040187,16.53581306219297,-0.9601731776883267
6,14,-4.294326942021102,16.9737401328004,-1.2023775706278645
7,0,-4.902995119040187,16.53581306219297,-1.579410143738869
7,1,-4.294326942021102,17.498409138548947,-0.6319098097335558
7,2,-5.215824926329455,17.498409138548947,-1.2023775706278645
7,3,-5.215824926329455,16.53581306219297,-2.2893462465045147
7,4,-5.336136146811759,16.745752518418772,-1.579410143738869
7,5,-4.902995119040187,17.233807770157874,-0.6319098097335558
7,6,-4.294326942021102,17.498409138548947,-0.602594702935205
7,7,-5.215824926329455,16.112476983091977,-2.2893462465045147
7,8,-4.630092690101844,16.745752518418772,-1.579410143738869
7,9,-5.336136146811759,16.53581306219297,-1.5252425369309133
7,10,-5.386455684764052,17.498409138548947,-0.6319098097335558
7,11,-3.4864511885359715,17.498409138548947,-1.2023775706278645
7,12,-5.215824926329455,17.26806417138174,-2.2893462465045147
7,13,-5.215824926329455,16.745752518418772,-1.8628600482553075
7,14,-5.336136146811759,16.538192166804944,-1.579410143738869
8,0,-4.294326942021102,17.498409138548947,-0.6319098097335558
8,1,-4.902995119040187,17.233807770157874,-0.6319098097335558
8,2,-4.902995119040187,16.53581306219297,-1.579410143738869
8,3,-5.215824926329455,17.26806417138174,-2.2893462465045147
8,4,-5.336136146811759,16.745752518418772,-1.579410143738869
8,5,-4.294326942021102,17.06319184517529,-0.6319098097335558
8,6,-5.850507687359999,16.53581306219297,-1.579410143738869
8,7,-4.666159224776774,17.26806417138174,-2.2893462465045147
8,8,-5.215824926329455,16.745752518418772,-1.914345267483654
8,9,-5.336136146811759,17.7383872304774,-0.6319098097335558
8,10,-4.294326942021102,17.233807770157874,0.0026989105936436886
8,11,-4.003430235891682,16.53581306219297,-1.579410143738869
8,12,-4.902995119040187,17.26806417138174,-1.932602919266188
8,13,-5.215824926329455,17.500084456451493,-1.579410143738869
8,14,-5.336136146811759,17.115424048382398,-0.6319098097335558
9,0,-4.902995119040187,17.233807770157874,-0.6319098097335558
9,1,-4.294326942021102,17.498409138548947,-0.6319098097335558
9,2,-5.215824926329455,17.26806417138174,-2.2893462465045147
9,3,-4.294326942021102,17.06319184517529,-0.6319098097335558
9,4,-5.336136146811759,16.745752518418772,-1.579410143738869
9,5,-4.902995119040187,17.498409138548947,-0.7548440421202824
9,6,-4.859998508574492,17.26806417138174,-2.2893462465045147
9,7,-5.215824926329455,16.796032748211626,-0.6319098097335558
9,8,-4.294326942021102,17.203079146367305,-1.579410143738869
9,9,-5.336136146811759,17.963976218352645,-0.6319098097335558
9,10,-4.902995119040187,17.498409138548947,-1.4908814765810046
9,11,-4.294326942021102,17.781968906616296,-2.2893462465045147
9,12,-5.343758285749262,17.06319184517529,-0.6319098097335558
9,13,-4.294326942021102,16.745752518418772,-1.9318880558550235
9,14,-5.336136146811759,16.930140437634385,-0.6319098097335558
0,0,-3.0032331910409518,-1.4693075414694263,4.723261401892934
0,1,3.4124779771972946,17.736422566433617,-16.231962768784317
0,2,-11.500814907860075,-7.960801265937754,-16.58642769906973
0,3,18.677771244211733,-17.38159963147856,-12.561001583843945
0,4,-5.433631885692471,-2.1560206594367948,3.2518493452154615
0,5,-0.1757407079050921,-15.134244955787963,-18.231103807609173
0,6,-3.195181436600059,4.468652872383338,-14.969641498772543
0,7,5.335042526970014,1.023600328053007,9.42209312487035
0,8,-8.217554790890595,-3.44109537865436,-17.83013284520054
0,9,-1.4078728069801336,-11.136646958675804,14.020773459959543
0,10,8.567546151424924,3.546481216539469,-17.652534428728842
0,11,-10.389481053553897,6.25134697159552,10.640393213551587
0,12,-1.0358612114967514,4.143778215281401,-12.962991692628997
0,13,5.91832603176497,0.8258096978371263,6.462323103738772
0,14,5.32969074392247,6.948837402857876,-12.076137734851491
1,0,-1.0358612114967514,4.143778215281401,-12.962991692628997
1,1,-3.195181436600059,4.468652872383338,-14.969641498772543
1,2,-11.500814907860075,-7.960801265937754,-16.58642769906973
1,3,-0.1757407079050921,-15.134244955787963,-18.231103807609173
1,4,-8.217554790890595,-3.44109537865436,-17.83013284520054
1,5,-1.3450686944243089,4.468652872383338,-14.969641498772543
1,6,-3.195181436600059,-7.960801265937754,-17.54027583601123
1,7,-11.500814907860075,-15.357212636887967,-18.231103807609173
1,8,-0.1757407079050921,-3.44109537865436,-18.731407237773684
1,9,-7.934161900805963,4.143778215281401,-12.962991692628997
1,10,-1.0358612114967514,4.367520405701008,-14.969641498772543
1,11,-3.195181436600059,-7.960801265937754,-15.77644474137075
1,12,-11.500814907860075,-14.218807615805789,-18.231103807609173
1,13,-0.1757407079050921,-2.985746722417721,-17.83013284520054
1,14,-8.205886820498984,4.143778215281401,-12.962991692628997
2,0,-7.934161900805963,4.143778215281401,-12.962991692628997
2,1,-1.0358612114967514,4.143778215281401,-12.962991692628997
2,2,-8.205886820498984,4.143778215281401,-12.962991692628997
2,3,-1.3450686944243089,4.468652872383338,-14.969641498772543
2,4,-3.195181436600059,4.468652872383338,-14.969641498772543
2,5,-7.934161900805963,4.6855932794163975,-12.962991692628997
2,6,-1.0358612114967514,3.6194356318171215,-12.962991692628997
2,7,-8.401011056659948,4.468652872383338,-14.969641498772543
2,8,-1.3450686944243089,4.468652872383338,-14.84253165950975
2,9,-3.195181436600059,4.143778215281401,-13.182724900730319
2,10,-7.934161900805963,4.143778215281401,-13.386776914738839
2,11,-1.0358612114967514,4.143778215281401,-12.83579346115561
2,12,-8.205886820498984,4.382741422838454,-14.969641498772543
2,13,-2.183772419850043,4.468652872383338,-14.969641498772543
2,14,-3.0169717924863484,4.143778215281401,-12.962991692628997
3,0,-1.3450686944243089,4.468652872383338,-14.969641498772543
3,1,-7.934161900805963,4.143778215281401,-13.386776914738839
3,2,-3.0169717924863484,4.143778215281401,-12.962991692628997
3,3,-7.934161900805963,4.6855932794163975,-12.962991692628997
3,4,-8.205886820498984,4.382741422838454,-14.969641498772543
3,5,-1.042867992845097,4.143778215281401,-13.386776914738839
3,6,-7.934161900805963,4.143778215281401,-12.02638203428323
3,7,-3.0169717924863484,4.6855932794163975,-13.673201301117766
3,8,-7.728730270186988,4.382741422838454,-14.969641498772543
3,9,-8.175109524210468,4.468652872383338,-14.969641498772543
3,10,-1.2011778613023831,4.143778215281401,-13.386776914738839
3,11,-7.934161900805963,4.143778215281401,-13.86599192390606
3,12,-2.5287392279278693,4.6855932794163975,-12.962991692628997
3,13,-7.934161900805963,3.7893636882014334,-14.969641498772543
3,14,-8.5844939682197,4.468652872383338,-14.969641498772543
4,0,-1.2011778613023831,4.143778215281401,-13.386776914738839
4,1,-7.934161900805963,3.7893636882014334,-14.969641498772543
4,2,-1.042867992845097,4.143778215281401,-13.386776914738839
4,3,-7.934161900805963,4.143778215281401,-13.386776914738839
4,4,-7.934161900805963,4.143778215281401,-13.86599192390606
4,5,-1.5804592551490968,3.7893636882014334,-14.969641498772543
4,6,-7.934161900805963,4.143778215281401,-14.058022820400728
4,7,-1.042867992845097,4.143778215281401,-13.899722617994179
4,8,-7.934161900805963,4.143778215281401,-14.585324098551013
4,9,-7.489581387719806,4.143778215281401,-13.386776914738839
4,10,-1.2011778613023831,3.7893636882014334,-14.984653707887741
4,11,-7.934161900805963,4.143778215281401,-14.000349837615978
4,12,-1.042867992845097,4.605550657580821,-13.386776914738839
4,13,-7.934161900805963,4.143778215281401,-14.695730583265462
4,14,-8.043685493541044,4.143778215281401,-13.386776914738839
5,0,-1.5804592551490968,3.7893636882014334,-14.969641498772543
5,1,-7.934161900805963,3.7893636882014334,-14.969641498772543
5,2,-1.2011778613023831,3.7893636882014334,-14.984653707887741
5,3,-7.934161900805963,4.143778215281401,-14.058022820400728
5,4,-1.042867992845097,4.605550657580821,-13.386776914738839
5,5,-1.5804592551490968,3.7893636882014334,-15.450633339712049
5,6,-7.934161900805963,4.759338983343403,-14.984653707887741
5,7,-1.2011778613023831,3.84528369838919,-14.058022820400728
5,8,-7.876618833964122,4.605550657580821,-13.386776914738839
5,9,-1.042867992845097,3.84431196593723,-14.969641498772543
5,10,-1.5804592551490968,3.3961334602063653,-14.969641498772543
5,11,-7.934161900805963,3.7893636882014334,-14.807660283407118
5,12,-1.2011778613023831,4.143778215281401,-13.495654651066769
5,13,-8.823419381257269,4.605550657580821,-13.386776914738839
5,14,-1.042867992845097,3.7893636882014334,-15.03665072704798
6,0,-1.2011778613023831,3.7893636882014334,-14.984653707887741
6,1,-8.823419381257269,4.605550657580821,-13.386776914738839
6,2,-7.876618833964122,4.605550657580821,-13.386776914738839
6,3,-7.934161900805963,3.7893636882014334,-14.807660283407118
6,4,-7.934161900805963,3.7893636882014334,-14.969641498772543
6,5,-1.2011778613023831,5.470861195785524,-13.386776914738839
6,6,-8.719995173553391,4.605550657580821,-13.386776914738839
6,7,-7.8081741084860745,3.7893636882014334,-14.807660283407118
6,8,-7.934161900805963,4.293028136820469,-14.969641498772543
6,9,-7.934161900805963,3.7030148897608512,-14.984653707887741
6,10,-1.2011778613023831,4.912052535594185,-13.386776914738839
6,11,-8.823419381257269,4.605550657580821,-12.707461258166497
6,12,-7.876618833964122,3.026637873310904,-14.807660283407118
6,13,-7.934161900805963,2.947800931222437,-14.969641498772543
6,14,-7.934161900805963,3.7893636882014334,-15.131477595732093
7,0,-1.2011778613023831,3.7893636882014334,-14.984653707887741
7,1,-7.934161900805963,3.7893636882014334,-15.131477595732093
7,2,-1.2011778613023831,4.912052535594185,-13.386776914738839
7,3,-8.823419381257269,4.605550657580821,-13.386776914738839
7,4,-8.719995173553391,4.605550657580821,-13.386776914738839
7,5,-1.2011778613023831,3.7893636882014334,-14.613881291977286
7,6,-7.934161900805963,4.912052535594185,-14.07746825315337
7,7,-1.2011778613023831,4.605550657580821,-13.353236035539474
7,8,-8.823419381257269,4.605550657580821,-13.510848659449982
7,9,-8.719995173553391,3.7893636882014334,-14.176103810322868
7,10,-1.2011778613023831,3.7893636882014334,-14.144991602396622
7,11,-7.6711605538466,4.912052535594185,-13.386776914738839
7,12,-1.2011778613023831,3.822302414642743,-13.386776914738839
7,13,-8.823419381257269,4.605550657580821,-13.828440502298278
7,14,-8.719995173553391,3.7893636882014334,-14.216972142675525
8,0,-1.2011778613023831,3.7893636882014334,-14.144991602396622
8,1,-1.2011778613023831,4.912052535594185,-13.386776914738839
8,2,-1.2011778613023831,3.7893636882014334,-14.984653707887741
8,3,-8.719995173553391,4.605550657580821,-13.386776914738839
8,4,-7.934161900805963,3.7893636882014334,-15.131477595732093
8,5,-1.2011778613023831,4.912052535594185,-14.050146710457515
8,6,-1.2818523149621461,3.7893636882014334,-14.984653707887741
8,7,-1.2011778613023831,4.175541278889693,-13.386776914738839
8,8,-8.719995173553391,3.7893636882014334,-14.703050339929423
8,9,-7.2179327495034205,3.7893636882014334,-14.144991602396622
8,10,-0.8144602659303328,4.912052535594185,-13.386776914738839
8,11,-1.2011778613023831,4.004305296777199,-14.984653707887741
8,12,-0.6793792945775421,4.605550657580821,-13.386776914738839
8,13,-9.055589503122121,3.7893636882014334,-15.131477595732093
8,14,-7.934161900805963,3.7893636882014334,-14.010936206111765
9,0,-1.2011778613023831,4.912052535594185,-13.386776914738839
9,1,-1.2011778613023831,3.7893636882014334,-14.984653707887741
9,2,-1.2011778613023831,3.7893636882014334,-14.144991602396622
9,3,-1.2818523149621461,3.7893636882014334,-14.984653707887741
9,4,-9.055589503122121,3.7893636882014334,-15.131477595732093
9,5,-1.2011778613023831,2.9193633611561567,-14.984653707887741
9,6,-1.2011778613023831,3.7893636882014334,-14.626783667795099
9,7,-1.2011778613023831,4.484351084267103,-14.984653707887741
9,8,-1.2818523149621461,3.8223613867062265,-15.131477595732093
9,9,-8.453116038846659,4.912052535594185,-13.386776914738839
9,10,-1.7606216412553486,3.7893636882014334,-14.984653707887741
9,11,-1.2011778613023831,3.7893636882014334,-13.769668872424557
9,12,-1.2011778613023831,3.40608160021408,-14.984653707887741
9,13,-1.2818523149621461,3.7893636882014334,-15.631839082499596
9,14,-9.055589503122121,4.680776931450397,-13.386776914738839
10,0,-8.453116038846659,4.912052535594185,-13.386776914738839
10,1,-1.2011778613023831,3.7893636882014334,-14.984653707887741
10,2,-1.7606216412553486,3.7893636882014334,-14.984653707887741
10,3,-1.2011778613023831,2.9193633611561567,-14.984653707887741
10,4,-1.2818523149621461,3.7893636882014334,-14.984653707887741
10,5,-8.453116038846659,3.7893636882014334,-14.986491394349441
10,6,-1.2011778613023831,3.7893636882014334,-14.507668593708093
10,7,-1.7606216412553486,2.9193633611561567,-14.015615054870942
10,8,-1.001793751324485,3.7893636882014334,-14.984653707887741
10,9,-1.2818523149621461,4.912052535594185,-12.571795836407272
10,10,-8.453116038846659,3.7893636882014334,-15.640203002332976
10,11,-1.094423259132759,3.7893636882014334,-14.984653707887741
10,12,-2.115939228173258,2.9193633611561567,-14.984653707887741
10,13,-1.2011778613023831,3.4585738408989624,-14.984653707887741
10,14,-1.5233516356740682,4.912052535594185,-13.386776914738839
11,0,-1.7606216412553486,3.7893636882014334,-14.984653707887741
11,1,-1.2011778613023831,2.9193633611561567,-14.984653707887741
11,2,-1.2011778613023831,3.7893636882014334,-14.507668593708093
11,3,-1.2818523149621461,4.912052535594185,-12.571795836407272
11,4,-1.7606216412553486,2.9193633611561567,-14.015615054870942
11,5,-1.7606216412553486,2.9193633611561567,-14.81044769669814
11,6,-1.2011778613023831,4.310638707574407,-14.507668593708093
11,7,-1.2011778613023831,4.912052535594185,-12.073226445723847
11,8,-0.7710136138456862,2.9193633611561567,-14.015615054870942
11,9,-1.7718432703932148,3.7893636882014334,-14.984653707887741
11,10,-1.7606216412553486,2.0594632334117478,-14.984653707887741
11,11,-2.053420166764047,3.7893636882014334,-14.507668593708093
11,12,-1.2011778613023831,4.912052535594185,-12.40476571786603
11,13,-1.2818523149621461,2.6791939069281736,-14.015615054870942
11,14,-2.6841414971438775,3.7893636882014334,-14.984653707887741
12,0,-1.7718432703932148,3.7893636882014334,-14.984653707887741
12,1,-0.7710136138456862,2.9193633611561567,-14.015615054870942
12,2,-1.2011778613023831,3.7893636882014334,-14.507668593708093
12,3,-2.053420166764047,3.7893636882014334,-14.507668593708093
12,4,-2.6841414971438775,3.7893636882014334,-14.984653707887741
12,5,-1.7718432703932148,2.9193633611561567,-13.875085743182476
12,6,-0.7710136138456862,3.7893636882014334,-15.445308235936732
12,7,-1.6722286881640662,3.7893636882014334,-14.507668593708093
12,8,-2.1834111231696447,3.7893636882014334,-14.984653707887741
12,9,-2.6841414971438775,3.7893636882014334,-15.891769164329977
12,10,-1.7718432703932148,2.9193633611561567,-13.418478932094317
12,11,-0.7710136138456862,4.642612369198979,-14.507668593708093
12,12,-1.2011778613023831,4.0547475957549395,-14.507668593708093
12,13,-2.4099224098013368,3.7893636882014334,-14.984653707887741
12,14,-2.6841414971438775,4.129308196951525,-14.984653707887741
13,0,-1.7718432703932148,3.7893636882014334,-14.984653707887741
13,1,-2.053420166764047,3.7893636882014334,-14.507668593708093
13,2,-1.2011778613023831,4.0547475957549395,-14.507668593708093
13,3,-1.2011778613023831,3.7893636882014334,-14.507668593708093
13,4,-2.6841414971438775,3.7893636882014334,-14.984653707887741
13,5,-1.7718432703932148,3.9871993881361396,-14.507668593708093
13,6,-2.053420166764047,4.750521020259739,-14.507668593708093
13,7,-0.7938931098594912,3.7893636882014334,-14.507668593708093
13,8,-0.611784412862697,3.7893636882014334,-14.984653707887741
13,9,-2.6841414971438775,3.9163080990608634,-14.984653707887741
13,10,-1.7718432703932148,3.856144642902214,-14.507668593708093
13,11,-2.053420166764047,4.0547475957549395,-14.646138733464419
13,12,-1.2011778613023831,3.7893636882014334,-13.866375771733257
13,13,-0.26845226041234604,3.7893636882014334,-14.984653707887741
13,14,-2.6841414971438775,3.7893636882014334,-15.379448682017376
14,0,-1.7718432703932148,3.9871993881361396,-14.507668593708093
14,1,-2.053420166764047,3.7893636882014334,-14.507668593708093
14,2,-1.7718432703932148,3.856144642902214,-14.507668593708093
14,3,-2.053420166764047,4.750521020259739,-14.507668593708093
14,4,-2.053420166764047,4.0547475957549395,-14.646138733464419
14,5,-1.3993972155371524,3.7893636882014334,-14.507668593708093
14,6,-2.053420166764047,3.856144642902214,-13.984153246046079
14,7,-1.7718432703932148,4.750521020259739,-13.877307489369528
14,8,-2.053420166764047,4.0547475957549395,-14.756152049708977
14,9,-2.629684530045628,3.9871993881361396,-14.507668593708093
14,10,-1.7718432703932148,3.1982235097357075,-14.507668593708093
14,11,-2.053420166764047,3.856144642902214,-15.341466820466813
14,12,-2.6472255612515343,4.750521020259739,-14.507668593708093
14,13,-2.6553816498138314,4.0547475957549395,-14.646138733464419
14,14,-2.053420166764047,3.9871993881361396,-14.090845777750985
15,0,-2.053420166764047,4.0547475957549395,-14.646138733464419
15,1,-2.6553816498138314,4.0547475957549395,-14.646138733464419
15,2,-2.053420166764047,3.7893636882014334,-14.507668593708093
15,3,-1.7718432703932148,3.9871993881361396,-14.507668593708093
15,4,-2.053420166764047,3.856144642902214,-15.341466820466813
15,5,-2.053420166764047,4.0547475957549395,-14.515834036398811
15,6,-2.6553816498138314,3.7893636882014334,-15.000469557628469
15,7,-2.053420166764047,3.9871993881361396,-14.909106111166402
15,8,-1.7718432703932148,3.4729530250399923,-15.341466820466813
15,9,-1.9272421943793996,4.0547475957549395,-14.646138733464419
15,10,-2.1050792000236966,4.0547475957549395,-14.646138733464419
15,11,-2.6553816498138314,3.7893636882014334,-14.00328240821396
15,12,-2.053420166764047,4.0092694631142916,-14.507668593708093
15,13,-1.7718432703932148,3.856144642902214,-14.617952252631953
15,14,-2.4529668304216354,4.0547475957549395,-14.646138733464419
16,0,-2.6553816498138314,3.7893636882014334,-15.000469557628469
16,1,-1.7718432703932148,3.856144642902214,-14.617952252631953
16,2,-2.6553816498138314,4.0547475957549395,-14.646138733464419
16,3,-2.053420166764047,4.0547475957549395,-14.515834036398811
16,4,-2.4529668304216354,4.0547475957549395,-14.646138733464419
16,5,-2.6553816498138314,3.856144642902214,-14.154539763212876
16,6,-1.88412484954253,4.0547475957549395,-14.646138733464419
16,7,-2.6553816498138314,4.0547475957549395,-14.277481156513517
16,8,-2.053420166764047,5.038529218914351,-14.646138733464419
16,9,-3.167682928631695,3.7893636882014334,-15.000469557628469
16,10,-2.6553816498138314,3.856144642902214,-15.403336872263582
16,11,-1.7718432703932148,3.586615655631829,-14.646138733464419
16,12,-2.6553816498138314,4.329652699126631,-14.515834036398811
16,13,-2.053420166764047,3.3058397264853916,-14.646138733464419
16,14,-2.4529668304216354,3.7893636882014334,-15.655138921627962
17,0,-2.4529668304216354,3.7893636882014334,-15.655138921627962
17,1,-2.6553816498138314,4.0547475957549395,-14.277481156513517
17,2,-2.6553816498138314,4.329652699126631,-14.515834036398811
17,3,-1.7718432703932148,3.856144642902214,-14.617952252631953
17,4,-2.6553816498138314,3.856144642902214,-15.403336872263582
17,5,-2.4529668304216354,4.483779937269498,-14.277481156513517
17,6,-2.1911703824454927,4.329652699126631,-14.515834036398811
17,7,-3.0646644790478055,3.856144642902214,-14.617952252631953
17,8,-1.7718432703932148,3.8490614166715815,-15.403336872263582
17,9,-2.6553816498138314,3.768764465773863,-15.655138921627962
17,10,-3.0739627018048887,4.0547475957549395,-14.277481156513517
17,11,-2.6553816498138314,3.8191265733218103,-14.515834036398811
17,12,-3.4543720255573476,3.856144642902214,-14.617952252631953
17,13,-2.6558580680360606,3.856144642902214,-15.403336872263582
17,14,-2.655904592999254,3.7893636882014334,-15.655138921627962
18,0,-2.1911703824454927,4.329652699126631,-14.515834036398811
18,1,-2.6558580680360606,3.856144642902214,-15.403336872263582
18,2,-2.4529668304216354,4.483779937269498,-14.277481156513517
18,3,-2.6553816498138314,3.768764465773863,-15.655138921627962
18,4,-1.7718432703932148,3.856144642902214,-14.617952252631953
18,5,-2.735979753313632,3.856144642902214,-15.403336872263582
18,6,-2.1363348780459335,4.483779937269498,-14.277481156513517
18,7,-2.2002982073474415,3.768764465773863,-15.655138921627962
18,8,-2.6553816498138314,4.849266262536555,-14.617952252631953
18,9,-1.7718432703932148,3.9654052074076978,-14.515834036398811
18,10,-2.1911703824454927,4.01045879629204,-15.403336872263582
18,11,-2.6558580680360606,4.7152852313806575,-14.277481156513517
18,12,-2.4529668304216354,3.7246510064432887,-15.655138921627962
18,13,-2.6603106940841874,3.856144642902214,-14.617952252631953
18,14,-2.278125611771042,4.329652699126631,-14.515834036398811
19,0,-1.7718432703932148,3.856144642902214,-14.617952252631953
19,1,-2.1911703824454927,4.329652699126631,-14.515834036398811
19,2,-2.6553816498138314,4.849266262536555,-14.617952252631953
19,3,-2.6558580680360606,3.856144642902214,-15.403336872263582
19,4,-1.7718432703932148,3.9654052074076978,-14.515834036398811
19,5,-1.7718432703932148,4.7558639868736865,-14.515834036398811
19,6,-2.1911703824454927,4.849266262536555,-14.119342805662932
19,7,-2.6553816498138314,3.856144642902214,-15.655734632765007
19,8,-2.6558580680360606,3.9654052074076978,-13.606504396441348
19,9,-1.9634322694499806,3.856144642902214,-14.617952252631953
19,10,-1.7718432703932148,4.940954476178488,-14.515834036398811
19,11,-2.1911703824454927,4.849266262536555,-14.80126834609949
19,12,-2.6553816498138314,4.493307202548717,-15.403336872263582
19,13,-2.6558580680360606,3.9654052074076978,-14.300515851180984
19,14,-1.7718432703932148,4.1924429074891085,-14.617952252631953
20,0,-2.1911703824454927,4.849266262536555,-14.80126834609949
20,1,-1.7718432703932148,4.1924429074891085,-14.617952252631953
20,2,-1.7718432703932148,3.856144642902214,-14.617952252631953
20,3,-1.7718432703932148,4.7558639868736865,-14.515834036398811
20,4,-1.7718432703932148,3.9654052074076978,-14.515834036398811
20,5,-2.1911703824454927,4.707061525224821,-14.617952252631953
20,6,-2.391007609473781,3.856144642902214,-14.617952252631953
20,7,-1.7718432703932148,4.7558639868736865,-15.16399302295169
20,8,-2.4340881967743964,3.9654052074076978,-14.515834036398811
20,9,-1.7718432703932148,4.849266262536555,-15.155622078461843
20,10,-2.2509982910587025,4.1924429074891085,-14.617952252631953
20,11,-1.7718432703932148,3.856144642902214,-13.890616933115243
20,12,-1.7718432703932148,4.741738534321318,-14.515834036398811
20,13,-1.7718432703932148,3.5353342974889395,-14.515834036398811
20,14,-1.7718432703932148,4.849266262536555,-14.920332847813498
21,0,-2.1911703824454927,4.707061525224821,-14.617952252631953
21,1,-1.7718432703932148,3.856144642902214,-14.617952252631953
21,2,-2.4340881967743964,3.9654052074076978,-14.515834036398811
21,3,-2.1911703824454927,4.849266262536555,-14.80126834609949
21,4,-1.7718432703932148,3.856144642902214,-13.890616933115243
21,5,-2.1911703824454927,3.856144642902214,-14.158947469006655
21,6,-1.7718432703932148,3.9654052074076978,-15.07515477087796
21,7,-2.2845345288712067,4.849266262536555,-14.80126834609949
21,8,-2.1911703824454927,3.856144642902214,-13.202041894476956
21,9,-1.4363852179093788,4.707061525224821,-14.617952252631953
21,10,-2.1911703824454927,3.590272826396893,-14.617952252631953
21,11,-1.7718432703932148,3.9654052074076978,-15.187826100780137
21,12,-2.4340881967743964,4.849266262536555,-15.149609851336136
21,13,-2.1911703824454927,3.3072466303131964,-13.890616933115243
21,14,-1.7718432703932148,4.707061525224821,-15.219820228567217
22,0,-1.4363852179093788,4.707061525224821,-14.617952252631953
22,1,-1.7718432703932148,3.856144642902214,-14.617952252631953
22,2,-2.1911703824454927,3.590272826396893,-14.617952252631953
22,3,-1.7718432703932148,3.9654052074076978,-15.187826100780137
22,4,-2.1911703824454927,3.3072466303131964,-13.890616933115243
22,5,-1.7749937915944434,3.856144642902214,-14.617952252631953
22,6,-1.7718432703932148,2.6103256579088505,-14.617952252631953
22,7,-2.1911703824454927,3.248661455858776,-15.187826100780137
22,8,-1.954019866029136,3.3072466303131964,-13.890616933115243
22,9,-2.1911703824454927,4.708238134964725,-14.617952252631953
22,10,-0.9417684638104322,3.856144642902214,-14.617952252631953
22,11,-1.7718432703932148,3.8920836286857567,-14.617952252631953
22,12,-2.1911703824454927,3.4335408225885353,-15.187826100780137
22,13,-1.6239211948450543,3.3072466303131964,-13.890616933115243
22,14,-2.1911703824454927,4.112701279080072,-14.617952252631953
23,0,-1.7749937915944434,3.856144642902214,-14.617952252631953
23,1,-2.1911703824454927,3.590272826396893,-14.617952252631953
23,2,-1.7718432703932148,3.856144642902214,-14.617952252631953
23,3,-1.954019866029136,3.3072466303131964,-13.890616933115243
23,4,-1.7718432703932148,3.9654052074076978,-15.187826100780137
23,5,-2.112365869751943,3.590272826396893,-14.617952252631953
23,6,-2.1911703824454927,3.856144642902214,-14.44891394915988
23,7,-1.7718432703932148,3.424080223901872,-13.890616933115243
23,8,-1.954019866029136,3.9654052074076978,-14.454495928371419
23,9,-1.7718432703932148,4.661948234883955,-14.617952252631953
23,10,-1.7749937915944434,3.590272826396893,-14.860398794482977
23,11,-2.1911703824454927,4.014805087169796,-14.617952252631953
23,12,-1.7718432703932148,3.523510663437241,-13.890616933115243
23,13,-1.954019866029136,3.9654052074076978,-15.612298895643264
23,14,-1.7718432703932148,3.3120846052752744,-14.617952252631953
24,0,-1.7718432703932148,3.9654052074076978,-15.187826100780137
24,1,-1.7718432703932148,3.523510663437241,-13.890616933115243
24,2,-1.7718432703932148,3.3120846052752744,-14.617952252631953
24,3,-2.1911703824454927,3.856144642902214,-14.44891394915988
24,4,-1.954019866029136,3.9654052074076978,-14.454495928371419
24,5,-1.7718432703932148,4.268457791354175,-13.890616933115243
24,6,-1.7718432703932148,3.3120846052752744,-14.004154489293377
24,7,-2.555108309616381,3.856144642902214,-14.44891394915988
24,8,-2.1911703824454927,3.9654052074076978,-14.652224883994506
24,9,-1.954019866029136,3.2658257013217677,-15.187826100780137
24,10,-1.7718432703932148,3.523510663437241,-12.965427653090416
24,11,-1.7718432703932148,3.3120846052752744,-14.497893271718363
24,12,-2.3239187696665056,3.856144642902214,-14.44891394915988
24,13,-2.1911703824454927,4.625185468217669,-14.454495928371419
24,14,-1.954019866029136,4.3157180529731285,-15.187826100780137
25,0,-1.7718432703932148,4.268457791354175,-13.890616933115243
25,1,-1.7718432703932148,3.3120846052752744,-14.004154489293377
25,2,-2.1911703824454927,3.9654052074076978,-14.652224883994506
25,3,-1.954019866029136,3.9654052074076978,-14.454495928371419
25,4,-2.555108309616381,3.856144642902214,-14.44891394915988
25,5,-1.7718432703932148,3.7379913293849603,-14.004154489293377
25,6,-1.3575640439209782,3.9654052074076978,-14.652224883994506
25,7,-2.1911703824454927,3.9654052074076978,-13.954064899032034
25,8,-1.954019866029136,3.8840814789913427,-14.44891394915988
25,9,-2.0262273339941306,4.268457791354175,-13.890616933115243
25,10,-0.9888832351994852,3.3120846052752744,-14.004154489293377
25,11,-1.7718432703932148,3.9654052074076978,-14.304240050303576
25,12,-2.7040867136469693,3.9654052074076978,-14.454495928371419
25,13,-1.954019866029136,4.686421522299392,-14.44891394915988
25,14,-3.2858156630568693,4.268457791354175,-13.890616933115243
26,0,-1.954019866029136,3.8840814789913427,-14.44891394915988
26,1,-1.7718432703932148,3.3120846052752744,-14.004154489293377
26,2,-1.3575640439209782,3.9654052074076978,-14.652224883994506
26,3,-2.1911703824454927,3.9654052074076978,-14.652224883994506
26,4,-2.7040867136469693,3.9654052074076978,-14.454495928371419
26,5,-1.954019866029136,3.5825496791562106,-14.004154489293377
26,6,-1.7718432703932148,3.9654052074076978,-14.893957387095291
26,7,-1.73642030490909,3.9654052074076978,-14.652224883994506
26,8,-2.1911703824454927,3.9654052074076978,-14.479656381561357
26,9,-2.7040867136469693,3.8840814789913427,-14.044377564893459
26,10,-1.954019866029136,3.3120846052752744,-13.951538884396665
26,11,-1.7718432703932148,4.165581398219289,-14.652224883994506
26,12,-1.3575640439209782,3.9654052074076978,-15.213604074763234
26,13,-2.1911703824454927,3.746199814277749,-14.454495928371419
26,14,-2.7040867136469693,3.8840814789913427,-13.563527764567889
27,0,-2.7040867136469693,3.9654052074076978,-14.454495928371419
27,1,-1.954019866029136,3.8840814789913427,-14.44891394915988
27,2,-1.7718432703932148,3.3120846052752744,-14.004154489293377
27,3,-2.7040867136469693,3.8840814789913427,-14.044377564893459
27,4,-2.7040867136469693,3.8840814789913427,-13.563527764567889
27,5,-2.7040867136469693,4.036902519181323,-14.44891394915988
27,6,-1.954019866029136,3.716631662822083,-14.004154489293377
27,7,-1.3108780662764539,3.8840814789913427,-14.044377564893459
27,8,-2.7040867136469693,3.5301168919073262,-13.563527764567889
27,9,-2.1489327157246145,3.9654052074076978,-14.454495928371419
27,10,-2.9056279374446135,3.8840814789913427,-14.44891394915988
27,11,-1.954019866029136,3.3120846052752744,-14.16093494021013
27,12,-1.7718432703932148,3.8840814789913427,-14.314956152075426
27,13,-2.663250140049165,3.8840814789913427,-13.563527764567889
27,14,-2.7040867136469693,3.9654052074076978,-15.284589656677769
28,0,-1.954019866029136,3.8840814789913427,-14.44891394915988
28,1,-2.7040867136469693,3.8840814789913427,-14.044377564893459
28,2,-1.7718432703932148,3.8840814789913427,-14.314956152075426
28,3,-2.663250140049165,3.8840814789913427,-13.563527764567889
28,4,-2.7040867136469693,3.8840814789913427,-13.563527764567889
28,5,-1.954019866029136,3.175742100676479,-14.044377564893459
28,6,-2.7040867136469693,4.320958178427042,-14.314956152075426
28,7,-1.7718432703932148,3.8840814789913427,-12.916338373414908
28,8,-2.663250140049165,3.9827642489090938,-13.563527764567889
28,9,-2.7040867136469693,4.294269487154859,-14.44891394915988
28,10,-1.954019866029136,3.700592919296083,-14.044377564893459
28,11,-2.120859731993021,3.8840814789913427,-14.314956152075426
28,12,-1.7718432703932148,3.8840814789913427,-14.135829484452843
28,13,-3.125135638679378,3.8840814789913427,-13.563527764567889
28,14,-2.741384651774414,3.8840814789913427,-14.44891394915988
29,0,-2.663250140049165,3.8840814789913427,-13.563527764567889
29,1,-1.7718432703932148,3.8840814789913427,-12.916338373414908
29,2,-1.954019866029136,3.700592919296083,-14.044377564893459
29,3,-2.7040867136469693,3.8840814789913427,-13.563527764567889
29,4,-2.7040867136469693,4.320958178427042,-14.314956152075426
29,5,-2.663250140049165,3.8840814789913427,-12.871648857405681
29,6,-1.4951771637797953,3.700592919296083,-14.044377564893459
29,7,-1.954019866029136,3.8840814789913427,-13.376278883599893
29,8,-2.7040867136469693,4.94901417730106,-14.314956152075426
29,9,-2.7040867136469693,3.7387235822208993,-13.563527764567889
29,10,-1.7451846440273593,3.8840814789913427,-12.916338373414908
29,11,-1.8014869354937197,3.700592919296083,-14.044377564893459
29,12,-1.954019866029136,3.8840814789913427,-13.061757804032029
29,13,-2.7040867136469693,4.537180499933373,-14.314956152075426
29,14,-2.7040867136469693,3.8840814789913427,-13.478008080036153
30,0,-2.7040867136469693,4.537180499933373,-14.314956152075426
30,1,-2.7040867136469693,3.8840814789913427,-13.478008080036153
30,2,-2.7040867136469693,4.94901417730106,-14.314956152075426
30,3,-1.8014869354937197,3.700592919296083,-14.044377564893459
30,4,-1.7451846440273593,3.8840814789913427,-12.916338373414908
30,5,-2.7477128234255,3.8840814789913427,-13.478008080036153
30,6,-2.7526509925449067,4.94901417730106,-14.314956152075426
30,7,-2.7040867136469693,3.700592919296083,-14.046236327567087
30,8,-1.1892969502718986,3.8840814789913427,-12.916338373414908
30,9,-1.7451846440273593,5.10255562005317,-14.314956152075426
30,10,-3.5265842650283643,3.8840814789913427,-13.478008080036153
30,11,-2.7040867136469693,5.601082373025097,-14.314956152075426
30,12,-2.7040867136469693,3.91202840370432,-14.044377564893459
30,13,-1.4489318850628379,3.8840814789913427,-12.916338373414908
30,14,-1.7451846440273593,3.5688440208380388,-14.314956152075426
31,0,-1.8014869354937197,3.700592919296083,-14.044377564893459
31,1,-2.7040867136469693,4.537180499933373,-14.314956152075426
31,2,-2.7477128234255,3.8840814789913427,-13.478008080036153
31,3,-2.7526509925449067,4.94901417730106,-14.314956152075426
31,4,-2.7040867136469693,3.700592919296083,-14.046236327567087
31,5,-1.8014869354937197,4.537180499933373,-13.84225854403769
31,6,-2.428894413044069,3.8840814789913427,-13.478008080036153
31,7,-2.7477128234255,5.025405852019727,-14.314956152075426
31,8,-2.304344721969129,3.700592919296083,-14.046236327567087
31,9,-2.7040867136469693,3.700592919296083,-13.080894887065085
31,10,-1.8014869354937197,4.537180499933373,-14.557668817921025
31,11,-2.7040867136469693,3.8840814789913427,-12.769648014727073
31,12,-2.7477128234255,5.811792915537091,-14.314956152075426
31,13,-2.7526509925449067,3.700592919296083,-13.83618050710206
31,14,-2.7040867136469693,3.808952051337994,-14.044377564893459
32,0,-2.7040867136469693,4.537180499933373,-14.314956152075426
32,1,-2.7477128234255,5.025405852019727,-14.314956152075426
32,2,-2.7040867136469693,3.700592919296083,-14.046236327567087
32,3,-2.7477128234255,5.811792915537091,-14.314956152075426
32,4,-2.428894413044069,3.8840814789913427,-13.478008080036153
32,5,-2.7040867136469693,5.303524497482168,-14.314956152075426
32,6,-2.7477128234255,3.129015298087104,-14.046236327567087
32,7,-2.7040867136469693,5.811500501310421,-14.314956152075426
32,8,-2.7477128234255,3.8840814789913427,-14.200471411493481
32,9,-2.428894413044069,5.029036751028533,-14.314956152075426
32,10,-2.7040867136469693,4.209687070699591,-14.314956152075426
32,11,-2.7477128234255,3.700592919296083,-14.309484064919955
32,12,-2.7040867136469693,5.811792915537091,-14.25229860535261
32,13,-2.7477128234255,4.88189039697193,-13.478008080036153
32,14,-2.428894413044069,3.7149295558368065,-14.314956152075426
33,0,-2.7477128234255,3.700592919296083,-14.309484064919955
33,1,-2.428894413044069,3.8840814789913427,-13.478008080036153
33,2,-2.7040867136469693,4.537180499933373,-14.314956152075426
33,3,-2.7040867136469693,5.303524497482168,-14.314956152075426
33,4,-2.7040867136469693,5.811500501310421,-14.314956152075426
33,5,-2.7477128234255,3.8840814789913427,-14.316326413523484
33,6,-1.6934399174150259,4.537180499933373,-14.314956152075426
33,7,-2.7040867136469693,5.303524497482168,-13.61025622390575
33,8,-3.6991299161322138,5.811500501310421,-14.314956152075426
33,9,-3.3882474051222284,3.700592919296083,-14.309484064919955
33,10,-3.0854352701792678,3.8840814789913427,-13.478008080036153
33,11,-2.428894413044069,4.537180499933373,-14.25434312182619
33,12,-2.1769854174456196,5.303524497482168,-14.314956152075426
33,13,-2.7040867136469693,5.811500501310421,-14.747173901264752
33,14,-2.7040867136469693,3.036361455974759,-14.309484064919955
34,0,-2.7040867136469693,5.811500501310421,-14.747173901264752
34,1,-2.428894413044069,3.8840814789913427,-13.478008080036153
34,2,-2.428894413044069,4.537180499933373,-14.25434312182619
34,3,-2.7040867136469693,5.303524497482168,-13.61025622390575
34,4,-2.7040867136469693,3.036361455974759,-14.309484064919955
34,5,-2.7040867136469693,3.4472506939757714,-13.478008080036153
34,6,-2.4775528251062955,4.537180499933373,-14.25434312182619
34,7,-3.0235326302359016,5.303524497482168,-13.61025622390575
34,8,-2.464543827602328,3.036361455974759,-14.309484064919955
34,9,-2.7040867136469693,5.069602058459069,-14.747173901264752
34,10,-2.7973482063449975,3.8840814789913427,-13.478008080036153
34,11,-2.428894413044069,5.0873358691914135,-14.25434312182619
34,12,-2.911048300032777,5.303524497482168,-13.61025622390575
34,13,-2.7040867136469693,3.036361455974759,-14.064367506784317
34,14,-2.7040867136469693,5.353693737899791,-14.747173901264752
35,0,-2.7040867136469693,5.069602058459069,-14.747173901264752
35,1,-2.464543827602328,3.036361455974759,-14.309484064919955
35,2,-3.0235326302359016,5.303524497482168,-13.61025622390575
35,3,-2.4775528251062955,4.537180499933373,-14.25434312182619
35,4,-2.428894413044069,5.0873358691914135,-14.25434312182619
35,5,-2.7040867136469693,2.6480059768427697,-14.309484064919955
35,6,-2.464543827602328,5.727319807443603,-13.61025622390575
35,7,-3.0235326302359016,4.537180499933373,-13.409243603499425
35,8,-2.4775528251062955,5.9010296708838155,-14.25434312182619
35,9,-1.6408793357119738,5.069602058459069,-14.747173901264752
35,10,-2.7040867136469693,3.036361455974759,-14.64749546544385
35,11,-2.464543827602328,5.303524497482168,-13.041384725602065
35,12,-3.0235326302359016,4.537180499933373,-13.979847715581412
35,13,-2.0624681538294856,5.0873358691914135,-14.25434312182619
35,14,-1.5730361781137256,5.069602058459069,-14.747173901264752
36,0,-2.428894413044069,5.0873358691914135,-14.25434312182619
36,1,-2.4775528251062955,5.9010296708838155,-14.25434312182619
36,2,-2.464543827602328,5.727319807443603,-13.61025622390575
36,3,-3.0235326302359016,4.537180499933373,-13.409243603499425
36,4,-3.0235326302359016,5.303524497482168,-13.61025622390575
36,5,-3.013484620523829,5.9010296708838155,-14.25434312182619
36,6,-1.7558277506315974,5.727319807443603,-13.61025622390575
36,7,-2.1302851280535577,4.537180499933373,-13.409243603499425
36,8,-3.0235326302359016,6.039180367653306,-13.61025622390575
36,9,-2.8005292712345593,5.0873358691914135,-14.25434312182619
36,10,-2.428894413044069,5.9010296708838155,-13.870140972242739
36,11,-2.4775528251062955,5.727319807443603,-13.491705681738797
36,12,-2.464543827602328,4.537180499933373,-13.11771167687289
36,13,-3.0235326302359016,5.303524497482168,-13.134654311632863
36,14,-3.0235326302359016,5.0873358691914135,-14.451743213522638
37,0,-2.464543827602328,5.727319807443603,-13.61025622390575
37,1,-2.428894413044069,5.9010296708838155,-13.870140972242739
37,2,-3.0235326302359016,5.303524497482168,-13.61025622390575
37,3,-2.8005292712345593,5.0873358691914135,-14.25434312182619
37,4,-3.0235326302359016,4.537180499933373,-13.409243603499425
37,5,-2.142638065163095,5.9010296708838155,-13.870140972242739
37,6,-2.428894413044069,5.236774602577135,-13.61025622390575
37,7,-3.0235326302359016,4.936140651894398,-14.25434312182619
37,8,-2.6463196279782584,4.537180499933373,-13.409243603499425
