geration,id,w1,w2,w3
0,0,9.568578047092956,-8.224635247203217,4.369210020049113
0,1,-13.511242795824225,-10.28859639874987,-1.3225150309943032
0,2,19.637626555510195,-2.129659483313155,8.194136925574856
0,3,-12.961072361194091,18.711625352551998,-16.256289638254305
0,4,0.43509392670091884,1.6203012101028413,2.8027034352517006
0,5,4.563971259844848,-0.5034208933024118,-15.219885789193558
0,6,-14.997404156672186,4.454674958949628,-6.876177227396614
0,7,-15.206665165664557,1.4147818697941332,-17.16898944622612
0,8,15.711339314143174,18.583013579282664,-15.934198896732958
0,9,9.771350565322567,-12.248068533124803,11.781838677540115
0,10,4.069696338998,3.2312564265304076,-11.91830375166389
0,11,-6.816983215562566,3.4145883111707143,9.6257233541251
0,12,-9.954733177587428,14.01333382775406,9.874390625840903
0,13,6.868404446001538,16.283505758856464,12.285585242933323
0,14,-14.606774398910765,-16.018218954195724,-12.704854610138092
1,0,-12.961072361194091,18.711625352551998,-16.256289638254305
1,1,9.568578047092956,-8.224635247203217,4.369210020049113
1,2,-13.511242795824225,-10.28859639874987,-1.3225150309943032
1,3,19.637626555510195,-2.129659483313155,8.194136925574856
1,4,0.43509392670091884,1.6203012101028413,2.8027034352517006
1,5,-12.961072361194091,-7.6827589566481205,4.369210020049113
1,6,9.568578047092956,-10.28859639874987,-0.672879912816476
1,7,-13.511242795824225,-3.096120845305917,8.194136925574856
1,8,18.733112486146076,1.6203012101028413,2.8027034352517006
1,9,0.43509392670091884,18.711625352551998,-15.694587782008217
1,10,-12.961072361194091,-7.694070944022938,4.369210020049113
1,11,9.568578047092956,-10.28859639874987,-0.7069063562966815
1,12,-12.624771379327814,-2.129659483313155,8.194136925574856
1,13,19.637626555510195,1.6203012101028413,2.621800188076673
1,14,1.2458504264638621,18.711625352551998,-16.256289638254305
2,0,-12.961072361194091,18.711625352551998,-16.256289638254305
2,1,9.568578047092956,-8.224635247203217,4.369210020049113
2,2,-13.511242795824225,-10.28859639874987,-1.3225150309943032
2,3,19.637626555510195,-2.129659483313155,8.194136925574856
2,4,0.43509392670091884,1.6203012101028413,2.8027034352517006
2,5,-12.961072361194091,-8.224635247203217,3.970556412563945
2,6,8.584666805148503,-10.28859639874987,-1.3225150309943032
2,7,-13.511242795824225,-2.129659483313155,8.488566967784282
2,8,19.637626555510195,1.5272375799230433,2.8027034352517006
2,9,0.43509392670091884,19.185927459010987,-16.256289638254305
2,10,-12.695612840667815,-8.224635247203217,4.369210020049113
2,11,9.568578047092956,-10.209101439237426,-1.3225150309943032
2,12,-13.9360442232964,-2.129659483313155,8.194136925574856
2,13,19.24535114308434,1.6203012101028413,2.8027034352517006
2,14,0.43509392670091884,18.711625352551998,-15.6505749955422
3,0,-12.961072361194091,18.711625352551998,-16.256289638254305
3,1,9.568578047092956,-8.224635247203217,4.369210020049113
3,2,-13.511242795824225,-10.28859639874987,-1.3225150309943032
3,3,19.637626555510195,-2.129659483313155,8.194136925574856
3,4,0.43509392670091884,1.6203012101028413,2.8027034352517006
3,5,-12.961072361194091,-7.95229655545971,4.369210020049113
3,6,9.568578047092956,-10.28859639874987,-1.541739482905825
3,7,-13.511242795824225,-2.129659483313155,7.621132506735786
3,8,19.637626555510195,1.54427480421239,2.8027034352517006
3,9,0.43509392670091884,17.88165247220008,-16.256289638254305
3,10,-12.961072361194091,-8.773709768878998,4.369210020049113
3,11,9.568578047092956,-10.28859639874987,-0.40834675199995796
3,12,-13.511242795824225,-2.129659483313155,8.825521078440213
3,13,19.637626555510195,1.3377905759238053,2.8027034352517006
3,14,0.43509392670091884,19.016838314937097,-16.256289638254305
4,0,-12.961072361194091,18.711625352551998,-16.256289638254305
4,1,9.568578047092956,-8.224635247203217,4.369210020049113
4,2,-13.511242795824225,-10.28859639874987,-1.3225150309943032
4,3,19.637626555510195,-2.129659483313155,8.194136925574856
4,4,0.43509392670091884,1.6203012101028413,2.8027034352517006
4,5,-12.244125912790647,-8.224635247203217,4.369210020049113
4,6,9.568578047092956,-9.83013122701784,-1.3225150309943032
4,7,-13.511242795824225,-2.947835386249859,8.194136925574856
4,8,19.774009657739114,1.6203012101028413,2.8027034352517006
4,9,0.43509392670091884,18.711625352551998,-15.555008312409232
4,10,-13.593053947774502,-8.224635247203217,4.369210020049113
4,11,10.041214723993042,-10.28859639874987,-1.3225150309943032
4,12,-13.511242795824225,-2.2204466009936317,8.194136925574856
4,13,19.637626555510195,2.4480243634348224,2.8027034352517006
4,14,0.43509392670091884,19.53121796567633,-16.256289638254305
5,0,-12.961072361194091,18.711625352551998,-16.256289638254305
5,1,9.568578047092956,-8.224635247203217,4.369210020049113
5,2,-13.511242795824225,-10.28859639874987,-1.3225150309943032
5,3,19.637626555510195,-2.129659483313155,8.194136925574856
5,4,0.43509392670091884,1.6203012101028413,2.8027034352517006
5,5,-12.961072361194091,-7.8284092272709325,4.369210020049113
5,6,9.84504505321219,-10.28859639874987,-1.3225150309943032
5,7,-13.000250498546112,-2.129659483313155,8.194136925574856
5,8,18.67935551343202,1.6203012101028413,2.8027034352517006
5,9,-0.04578364850800276,18.711625352551998,-16.256289638254305
5,10,-12.207171763982657,-8.224635247203217,4.369210020049113
5,11,9.568578047092956,-10.35220216308102,-1.3225150309943032
5,12,-13.511242795824225,-2.129659483313155,8.916474085656906
5,13,19.294663346268567,1.6203012101028413,2.8027034352517006
5,14,0.43509392670091884,19.58102062781074,-16.256289638254305
6,0,-12.961072361194091,18.711625352551998,-16.256289638254305
6,1,-0.04578364850800276,18.711625352551998,-16.256289638254305
6,2,9.568578047092956,-8.224635247203217,4.369210020049113
6,3,-13.511242795824225,-10.28859639874987,-1.3225150309943032
6,4,19.637626555510195,-2.129659483313155,8.194136925574856
6,5,-12.961072361194091,19.48825407639556,-16.256289638254305
6,6,0.13624133842270258,-8.224635247203217,4.369210020049113
6,7,8.895456045254594,-10.28859639874987,-1.3225150309943032
6,8,-13.511242795824225,-2.129659483313155,8.194099206411266
6,9,18.67877807759879,18.711625352551998,-16.256289638254305
6,10,-12.961072361194091,19.675392497304944,-16.256289638254305
6,11,-0.04578364850800276,-8.184008550802476,4.369210020049113
6,12,9.568578047092956,-10.28859639874987,-1.6913907378262187
6,13,-13.44493543886898,-2.129659483313155,8.194136925574856
6,14,19.637626555510195,18.711625352551998,-16.353138883757698
7,0,-12.961072361194091,19.675392497304944,-16.256289638254305
7,1,-12.961072361194091,18.711625352551998,-16.256289638254305
7,2,-0.04578364850800276,18.711625352551998,-16.256289638254305
7,3,9.568578047092956,-8.224635247203217,4.369210020049113
7,4,-13.511242795824225,-10.28859639874987,-1.3225150309943032
7,5,-12.707928851145127,18.711625352551998,-16.256289638254305
7,6,-12.961072361194091,18.414765364746735,-16.256289638254305
7,7,-0.04578364850800276,-8.54981457775272,4.369210020049113
7,8,9.32310726251626,-10.28859639874987,-1.3225150309943032
7,9,-12.816958633068406,19.675392497304944,-16.256289638254305
7,10,-12.961072361194091,19.446805470232622,-16.256289638254305
7,11,-12.961072361194091,18.711625352551998,-15.34265104962896
7,12,0.23399640422417778,-8.224635247203217,4.369210020049113
7,13,9.568578047092956,-10.007932279568106,-1.3225150309943032
7,14,-12.925937720062725,19.675392497304944,-16.256289638254305
8,0,-12.707928851145127,18.711625352551998,-16.256289638254305
8,1,-12.925937720062725,19.675392497304944,-16.256289638254305
8,2,-12.961072361194091,18.414765364746735,-16.256289638254305
8,3,-12.816958633068406,19.675392497304944,-16.256289638254305
8,4,-12.961072361194091,19.446805470232622,-16.256289638254305
8,5,-12.707928851145127,20.539269035371614,-16.256289638254305
8,6,-13.879197981071986,18.414765364746735,-16.256289638254305
8,7,-12.961072361194091,19.562750003682744,-16.256289638254305
8,8,-13.464884647601036,19.446805470232622,-16.256289638254305
8,9,-12.961072361194091,18.03677496514731,-16.256289638254305
8,10,-13.685771436254415,19.675392497304944,-16.256289638254305
8,11,-12.925937720062725,18.899541624772297,-16.256289638254305
8,12,-12.961072361194091,20.1053994858173,-16.256289638254305
8,13,-12.816958633068406,19.446805470232622,-16.24363733050055
8,14,-12.961072361194091,18.711625352551998,-15.968950998323166
9,0,-12.961072361194091,18.03677496514731,-16.256289638254305
9,1,-12.961072361194091,19.562750003682744,-16.256289638254305
9,2,-12.816958633068406,19.675392497304944,-16.256289638254305
9,3,-12.961072361194091,19.446805470232622,-16.256289638254305
9,4,-12.961072361194091,20.1053994858173,-16.256289638254305
9,5,-12.961072361194091,19.220404736663045,-16.256289638254305
9,6,-12.961072361194091,19.675392497304944,-16.317094441454675
9,7,-12.00335199745454,19.446805470232622,-16.256289638254305
9,8,-12.961072361194091,20.1053994858173,-16.805536562957673
9,9,-12.961072361194091,17.88703250641408,-16.256289638254305
9,10,-12.961072361194091,20.229926565376903,-16.256289638254305
9,11,-12.961072361194091,19.938189706728405,-16.256289638254305
9,12,-12.453413864230802,19.446805470232622,-16.256289638254305
9,13,-12.961072361194091,20.1053994858173,-15.973653834800032
9,14,-12.961072361194091,18.03677496514731,-15.539706857612407
10,0,-12.816958633068406,19.675392497304944,-16.256289638254305
10,1,-12.00335199745454,19.446805470232622,-16.256289638254305
10,2,-12.961072361194091,19.220404736663045,-16.256289638254305
10,3,-12.453413864230802,19.446805470232622,-16.256289638254305
10,4,-12.961072361194091,20.1053994858173,-15.973653834800032
10,5,-12.816958633068406,19.446805470232622,-15.85429675112594
10,6,-12.00335199745454,19.220404736663045,-16.700981733386357
10,7,-12.58836267936743,19.446805470232622,-16.256289638254305
10,8,-12.453413864230802,20.1053994858173,-15.998448272320053
10,9,-13.846175871694022,19.675392497304944,-16.256289638254305
10,10,-12.816958633068406,19.446805470232622,-16.451861241976662
10,11,-12.00335199745454,19.531581897084454,-16.256289638254305
10,12,-12.961072361194091,19.177877021744703,-16.256289638254305
10,13,-12.453413864230802,20.1053994858173,-15.495213869948413
10,14,-12.961072361194091,19.95904844067969,-16.256289638254305
11,0,-13.846175871694022,19.675392497304944,-16.256289638254305
11,1,-12.816958633068406,19.675392497304944,-16.256289638254305
11,2,-12.00335199745454,19.220404736663045,-16.700981733386357
11,3,-12.58836267936743,19.446805470232622,-16.256289638254305
11,4,-12.961072361194091,19.220404736663045,-16.256289638254305
11,5,-13.025262332822335,19.675392497304944,-16.256289638254305
11,6,-12.816958633068406,19.220404736663045,-16.608976739225426
11,7,-12.00335199745454,19.446805470232622,-16.360330265418487
11,8,-12.58836267936743,19.220404736663045,-15.950870839677483
11,9,-12.961072361194091,19.764025767575184,-16.256289638254305
11,10,-13.90462257110959,19.675392497304944,-16.256289638254305
11,11,-12.631744383606403,19.220404736663045,-16.700981733386357
11,12,-12.845171522180369,19.446805470232622,-16.256289638254305
11,13,-12.58836267936743,19.220404736663045,-15.750228501228376
11,14,-12.961072361194091,19.675392497304944,-16.86545273783176
12,0,-12.58836267936743,19.446805470232622,-16.256289638254305
12,1,-12.00335199745454,19.446805470232622,-16.360330265418487
12,2,-12.816958633068406,19.675392497304944,-16.256289638254305
12,3,-12.00335199745454,19.220404736663045,-16.700981733386357
12,4,-12.961072361194091,19.220404736663045,-16.256289638254305
12,5,-12.58836267936743,19.050517948863995,-16.360330265418487
12,6,-12.00335199745454,18.862748623247672,-16.256289638254305
12,7,-12.816958633068406,19.942011969567847,-16.700981733386357
12,8,-11.694957696883023,19.220404736663045,-16.256289638254305
12,9,-12.961072361194091,19.360262593373537,-16.256289638254305
12,10,-12.58836267936743,19.446805470232622,-16.11132731952372
12,11,-12.00335199745454,19.675392497304944,-16.44590596075843
12,12,-12.816958633068406,18.838653292210708,-16.700981733386357
12,13,-12.00335199745454,19.47262384702453,-16.256289638254305
12,14,-12.468431618046695,19.446805470232622,-16.256289638254305
13,0,-12.00335199745454,19.47262384702453,-16.256289638254305
13,1,-12.816958633068406,19.675392497304944,-16.256289638254305
13,2,-12.961072361194091,19.360262593373537,-16.256289638254305
13,3,-12.816958633068406,18.838653292210708,-16.700981733386357
13,4,-12.00335199745454,19.446805470232622,-16.360330265418487
13,5,-12.00335199745454,19.535931027776762,-16.256289638254305
13,6,-12.816958633068406,18.84375784583804,-16.256289638254305
13,7,-12.961072361194091,18.838653292210708,-17.457359275449992
13,8,-12.628191777906176,19.446805470232622,-16.360330265418487
13,9,-11.817300246874357,19.47262384702453,-16.256289638254305
13,10,-11.383529200698481,19.675392497304944,-16.256289638254305
13,11,-12.816958633068406,19.360262593373537,-16.255204492672235
13,12,-12.961072361194091,18.75892896533195,-16.700981733386357
13,13,-12.816958633068406,18.497050465812727,-16.360330265418487
13,14,-12.94335043959714,19.47262384702453,-16.256289638254305
14,0,-12.00335199745454,19.535931027776762,-16.256289638254305
14,1,-12.816958633068406,18.84375784583804,-16.256289638254305
14,2,-11.817300246874357,19.47262384702453,-16.256289638254305
14,3,-12.00335199745454,19.446805470232622,-16.360330265418487
14,4,-12.961072361194091,18.838653292210708,-17.457359275449992
14,5,-12.00335199745454,19.49547478150614,-16.256289638254305
14,6,-12.816958633068406,18.64256431169025,-16.256289638254305
14,7,-11.066230814143616,19.446805470232622,-16.360330265418487
14,8,-12.00335199745454,18.838653292210708,-16.617614236700383
14,9,-12.961072361194091,19.04955163183961,-16.256289638254305
14,10,-12.00335199745454,18.84375784583804,-16.945753912225626
14,11,-12.816958633068406,18.775618025068287,-16.256289638254305
14,12,-11.817300246874357,19.446805470232622,-16.534465253030817
14,13,-12.00335199745454,18.973287375651317,-17.457359275449992
14,14,-12.695066929479424,19.535931027776762,-16.256289638254305
15,0,-12.961072361194091,19.04955163183961,-16.256289638254305
15,1,-12.816958633068406,18.64256431169025,-16.256289638254305
15,2,-12.00335199745454,18.838653292210708,-16.617614236700383
15,3,-12.816958633068406,18.775618025068287,-16.256289638254305
15,4,-12.00335199745454,19.535931027776762,-16.256289638254305
15,5,-12.961072361194091,18.64256431169025,-17.01747272759341
15,6,-13.651475844310397,18.838653292210708,-16.617614236700383
15,7,-12.686319320542701,18.775618025068287,-16.256289638254305
15,8,-12.816958633068406,18.767004434075417,-16.256289638254305
15,9,-12.885220151787736,19.04955163183961,-16.256289638254305
15,10,-12.961072361194091,18.64256431169025,-17.251894504938406
15,11,-12.816958633068406,18.513536110654655,-16.617614236700383
15,12,-11.82606139317633,18.775618025068287,-16.256289638254305
15,13,-12.816958633068406,19.535931027776762,-16.40380314696684
15,14,-12.00335199745454,19.04955163183961,-16.366401187370986
16,0,-11.82606139317633,18.775618025068287,-16.256289638254305
16,1,-12.885220151787736,19.04955163183961,-16.256289638254305
16,2,-12.961072361194091,18.64256431169025,-17.01747272759341
16,3,-12.686319320542701,18.775618025068287,-16.256289638254305
16,4,-12.961072361194091,19.04955163183961,-16.256289638254305
16,5,-12.074438927049536,19.04955163183961,-16.256289638254305
16,6,-13.221326412001922,18.64256431169025,-17.01747272759341
16,7,-12.060565337744274,18.775618025068287,-16.256289638254305
16,8,-12.686319320542701,19.41459970309704,-16.256289638254305
16,9,-12.961072361194091,18.775618025068287,-17.088569967009274
16,10,-11.82606139317633,19.392699585432936,-16.256289638254305
16,11,-12.885220151787736,18.64256431169025,-16.365495236072036
16,12,-12.961072361194091,18.775618025068287,-15.818152812527234
16,13,-12.487901503634477,19.04955163183961,-16.256289638254305
16,14,-12.494921487543301,18.775618025068287,-16.256289638254305
17,0,-12.961072361194091,19.04955163183961,-16.256289638254305
17,1,-11.82606139317633,18.775618025068287,-16.256289638254305
17,2,-12.885220151787736,18.64256431169025,-16.365495236072036
17,3,-12.885220151787736,19.04955163183961,-16.256289638254305
17,4,-12.686319320542701,18.775618025068287,-16.256289638254305
17,5,-12.961072361194091,18.775618025068287,-16.778310268675995
17,6,-11.82606139317633,17.672377259990473,-16.365495236072036
17,7,-12.885220151787736,19.04955163183961,-16.930252261785085
17,8,-13.31420897608454,18.775618025068287,-16.256289638254305
17,9,-12.686319320542701,18.429245696063486,-16.256289638254305
17,10,-12.961072361194091,18.775618025068287,-17.151265479576423
17,11,-11.82606139317633,18.64256431169025,-17.120803010936314
17,12,-12.885220151787736,19.04955163183961,-16.678525627140765
17,13,-12.885220151787736,18.775618025068287,-17.152895754323737
17,14,-12.686319320542701,19.170531508000902,-16.256289638254305
18,0,-12.961072361194091,18.775618025068287,-17.151265479576423
18,1,-12.885220151787736,19.04955163183961,-16.678525627140765
18,2,-11.82606139317633,18.775618025068287,-16.256289638254305
18,3,-12.961072361194091,18.775618025068287,-16.778310268675995
18,4,-12.885220151787736,19.04955163183961,-16.930252261785085
18,5,-12.05590467985656,19.04955163183961,-16.678525627140765
18,6,-12.885220151787736,18.00299588130791,-16.256289638254305
18,7,-11.82606139317633,18.775618025068287,-16.73947772407119
18,8,-12.961072361194091,19.04955163183961,-16.700111074914858
18,9,-12.885220151787736,18.775618025068287,-17.20443806088997
18,10,-12.961072361194091,19.04955163183961,-16.45865753512427
18,11,-13.666085970431155,18.775618025068287,-16.256289638254305
18,12,-12.344419873007425,18.775618025068287,-16.778310268675995
18,13,-12.835634331584194,19.04955163183961,-16.930252261785085
18,14,-12.885220151787736,18.775618025068287,-16.667232336782693
19,0,-12.885220151787736,18.775618025068287,-17.20443806088997
19,1,-12.961072361194091,19.04955163183961,-16.700111074914858
19,2,-12.961072361194091,18.775618025068287,-16.778310268675995
19,3,-12.05590467985656,19.04955163183961,-16.678525627140765
19,4,-11.82606139317633,18.775618025068287,-16.73947772407119
19,5,-12.885220151787736,19.3347550537455,-16.700111074914858
19,6,-12.961072361194091,18.775618025068287,-16.123020754707014
19,7,-12.961072361194091,18.450637437714533,-16.678525627140765
19,8,-11.078635441360424,18.775618025068287,-16.73947772407119
19,9,-12.691128206381434,18.775618025068287,-17.20443806088997
19,10,-12.885220151787736,19.04955163183961,-15.784857890103227
19,11,-12.961072361194091,18.88565255743384,-16.778310268675995
19,12,-13.94108398532144,19.04955163183961,-16.678525627140765
19,13,-12.05590467985656,17.972188007355985,-16.73947772407119
19,14,-11.82606139317633,18.775618025068287,-17.398746797993567
20,0,-12.961072361194091,18.775618025068287,-16.778310268675995
20,1,-12.885220151787736,19.04955163183961,-15.784857890103227
20,2,-13.94108398532144,19.04955163183961,-16.678525627140765
20,3,-12.05590467985656,17.972188007355985,-16.73947772407119
20,4,-12.691128206381434,18.775618025068287,-17.20443806088997
20,5,-13.42019758121146,19.04955163183961,-15.784857890103227
20,6,-13.211067367031287,19.04955163183961,-16.678525627140765
20,7,-12.95198145228272,17.972188007355985,-16.73947772407119
20,8,-11.772968940137643,18.775618025068287,-17.20443806088997
20,9,-12.691128206381434,18.775618025068287,-17.22163498400266
20,10,-12.961072361194091,19.04955163183961,-14.814033060798412
20,11,-13.361261242112482,19.04955163183961,-16.678525627140765
20,12,-13.94108398532144,17.13636505531101,-16.73947772407119
20,13,-12.05590467985656,18.775618025068287,-16.209481457234045
20,14,-12.691128206381434,18.775618025068287,-16.494167532563186
21,0,-12.691128206381434,18.775618025068287,-16.494167532563186
21,1,-13.42019758121146,19.04955163183961,-15.784857890103227
21,2,-13.361261242112482,19.04955163183961,-16.678525627140765
21,3,-12.961072361194091,18.775618025068287,-16.778310268675995
21,4,-12.05590467985656,17.972188007355985,-16.73947772407119
21,5,-12.893699423270775,19.04955163183961,-15.784857890103227
21,6,-13.42019758121146,19.04955163183961,-16.79005471639339
21,7,-13.361261242112482,19.164021095299063,-16.778310268675995
21,8,-12.961072361194091,18.72554128641458,-16.73947772407119
21,9,-12.391564499581547,18.775618025068287,-16.494167532563186
21,10,-12.691128206381434,19.04955163183961,-16.388078239592105
21,11,-14.076889842096309,19.04955163183961,-16.678525627140765
21,12,-13.361261242112482,19.218326326831658,-16.778310268675995
21,13,-13.946748612755094,17.972188007355985,-16.73947772407119
21,14,-12.05590467985656,17.801703352860123,-16.494167532563186
22,0,-13.361261242112482,19.04955163183961,-16.678525627140765
22,1,-12.893699423270775,19.04955163183961,-15.784857890103227
22,2,-12.05590467985656,17.801703352860123,-16.494167532563186
22,3,-12.691128206381434,18.775618025068287,-16.494167532563186
22,4,-13.42019758121146,19.04955163183961,-15.784857890103227
22,5,-14.317257729985544,19.04955163183961,-15.784857890103227
22,6,-12.893699423270775,18.671697647946793,-16.494167532563186
22,7,-12.05590467985656,18.775618025068287,-17.16079981283548
22,8,-12.691128206381434,19.04955163183961,-15.410585272075426
22,9,-13.42019758121146,19.04955163183961,-16.63359417691899
22,10,-13.361261242112482,19.04955163183961,-15.730658670288488
22,11,-12.893699423270775,17.801703352860123,-16.19328530984201
22,12,-12.985545690558844,18.775618025068287,-16.494167532563186
22,13,-12.691128206381434,19.04955163183961,-15.821487430251596
22,14,-13.01232722854998,19.04955163183961,-16.678525627140765
23,0,-12.691128206381434,18.775618025068287,-16.494167532563186
23,1,-12.691128206381434,19.04955163183961,-15.410585272075426
23,2,-13.42019758121146,19.04955163183961,-16.63359417691899
23,3,-12.893699423270775,17.801703352860123,-16.19328530984201
23,4,-13.361261242112482,19.04955163183961,-16.678525627140765
23,5,-12.691128206381434,19.04955163183961,-14.69923483566161
23,6,-13.005236942341627,19.04955163183961,-16.63359417691899
23,7,-13.657007147505766,17.801703352860123,-16.19328530984201
23,8,-12.893699423270775,18.4479589565886,-16.678525627140765
23,9,-12.746510087376938,18.775618025068287,-16.494167532563186
23,10,-13.167963399657554,19.04955163183961,-15.410585272075426
23,11,-12.691128206381434,19.04955163183961,-16.90668482696711
23,12,-12.473445733515792,17.801703352860123,-16.19328530984201
23,13,-13.343908592964711,19.04955163183961,-16.678525627140765
23,14,-13.361261242112482,18.775618025068287,-15.817555795837361
24,0,-13.361261242112482,19.04955163183961,-16.678525627140765
24,1,-13.005236942341627,19.04955163183961,-16.63359417691899
24,2,-13.657007147505766,17.801703352860123,-16.19328530984201
24,3,-12.691128206381434,19.04955163183961,-16.90668482696711
24,4,-13.343908592964711,19.04955163183961,-16.678525627140765
24,5,-12.703259124246568,19.04955163183961,-16.63359417691899
24,6,-13.005236942341627,17.801703352860123,-15.418195375627027
24,7,-13.657007147505766,19.781979268117265,-16.90668482696711
24,8,-12.691128206381434,19.04955163183961,-17.04953429588759
24,9,-14.207926186489033,19.04955163183961,-16.678525627140765
24,10,-13.361261242112482,19.04955163183961,-15.928603855345356
24,11,-13.005236942341627,17.801703352860123,-17.130183225190578
24,12,-13.657007147505766,19.04955163183961,-16.146039929858755
24,13,-12.585923555362296,19.04955163183961,-16.678525627140765
24,14,-14.017448301687088,19.04955163183961,-16.678525627140765
25,0,-13.005236942341627,17.801703352860123,-17.130183225190578
25,1,-13.361261242112482,19.04955163183961,-16.678525627140765
25,2,-13.005236942341627,19.04955163183961,-16.63359417691899
25,3,-12.691128206381434,19.04955163183961,-16.90668482696711
25,4,-13.343908592964711,19.04955163183961,-16.678525627140765
25,5,-13.005236942341627,18.837873247792352,-16.678525627140765
25,6,-14.141528540790908,19.04955163183961,-16.63359417691899
25,7,-13.005236942341627,19.04955163183961,-16.531128665777178
25,8,-11.723958846492087,19.04955163183961,-16.678525627140765
25,9,-13.343908592964711,16.81907036557034,-17.130183225190578
25,10,-13.005236942341627,19.04955163183961,-17.435290469818952
25,11,-13.361261242112482,19.04955163183961,-16.53328132730741
25,12,-13.005236942341627,19.52247391201732,-16.90668482696711
25,13,-12.691128206381434,18.312101077649146,-16.678525627140765
25,14,-13.343908592964711,18.405906995692064,-17.130183225190578
26,0,-13.005236942341627,18.837873247792352,-16.678525627140765
26,1,-13.005236942341627,17.801703352860123,-17.130183225190578
26,2,-13.005236942341627,19.04955163183961,-17.435290469818952
26,3,-14.141528540790908,19.04955163183961,-16.63359417691899
26,4,-13.005236942341627,19.04955163183961,-16.531128665777178
26,5,-13.005236942341627,17.801703352860123,-16.646981091551144
26,6,-13.005236942341627,19.04955163183961,-16.915987184094263
26,7,-13.005236942341627,19.542688510870917,-16.63359417691899
26,8,-14.141528540790908,19.04955163183961,-16.212592381901008
26,9,-13.005236942341627,18.064573207919562,-16.678525627140765
26,10,-13.005236942341627,17.801703352860123,-17.521716239794518
26,11,-13.951053144028457,19.04955163183961,-17.435290469818952
26,12,-12.670612931929675,19.04955163183961,-16.63359417691899
26,13,-14.141528540790908,19.04955163183961,-16.949611810740986
26,14,-13.005236942341627,18.837873247792352,-16.17819468757243
27,0,-13.005236942341627,18.837873247792352,-16.678525627140765
27,1,-13.005236942341627,17.801703352860123,-17.130183225190578
27,2,-13.005236942341627,19.04955163183961,-17.435290469818952
27,3,-14.141528540790908,19.04955163183961,-16.949611810740986
27,4,-13.005236942341627,19.04955163183961,-16.531128665777178
27,5,-13.973757986535766,17.801703352860123,-17.130183225190578
27,6,-13.70447112234061,19.04955163183961,-17.435290469818952
27,7,-13.005236942341627,19.343961174732407,-16.949611810740986
27,8,-14.141528540790908,19.601502464149934,-16.531128665777178
27,9,-13.005236942341627,18.837873247792352,-16.16662201724644
27,10,-13.120256580919001,17.801703352860123,-17.130183225190578
27,11,-13.005236942341627,19.04955163183961,-16.541654116427065
27,12,-13.005236942341627,19.04955163183961,-16.409553721029198
27,13,-14.491755063911578,19.04955163183961,-16.531128665777178
27,14,-13.005236942341627,19.730673258634525,-16.678525627140765
28,0,-14.141528540790908,19.04955163183961,-16.949611810740986
28,1,-13.973757986535766,17.801703352860123,-17.130183225190578
28,2,-13.005236942341627,18.837873247792352,-16.678525627140765
28,3,-13.005236942341627,19.04955163183961,-17.435290469818952
28,4,-13.70447112234061,19.04955163183961,-17.435290469818952
28,5,-14.141528540790908,17.970663025264088,-17.130183225190578
28,6,-13.973757986535766,18.53283997844752,-16.678525627140765
28,7,-13.005236942341627,19.04955163183961,-16.60679537910514
28,8,-13.005236942341627,18.346159217532485,-17.435290469818952
28,9,-13.226253131522123,19.04955163183961,-16.949611810740986
28,10,-14.141528540790908,17.458894222387382,-17.130183225190578
28,11,-13.973757986535766,18.837873247792352,-16.941819737658246
28,12,-13.492887123036121,19.04955163183961,-17.435290469818952
28,13,-13.005236942341627,19.04955163183961,-17.261034703849234
28,14,-13.70447112234061,19.04955163183961,-17.499859261902415
29,0,-13.005236942341627,19.04955163183961,-17.261034703849234
29,1,-13.005236942341627,19.04955163183961,-17.435290469818952
29,2,-13.492887123036121,19.04955163183961,-17.435290469818952
29,3,-13.70447112234061,19.04955163183961,-17.435290469818952
29,4,-13.973757986535766,17.801703352860123,-17.130183225190578
29,5,-13.005236942341627,18.825469611644746,-17.435290469818952
29,6,-13.005236942341627,19.37811140066664,-17.435290469818952
29,7,-13.492887123036121,19.04955163183961,-18.26313475454142
29,8,-13.810994258958988,17.801703352860123,-17.130183225190578
29,9,-13.973757986535766,18.395826089738534,-17.261034703849234
29,10,-13.005236942341627,18.692069770176282,-17.435290469818952
29,11,-13.005236942341627,19.20081374572352,-17.435290469818952
29,12,-13.492887123036121,19.72923122668062,-17.435290469818952
29,13,-13.70447112234061,17.801703352860123,-16.71131644068847
29,14,-13.973757986535766,19.04955163183961,-17.353142121841834
30,0,-13.492887123036121,19.04955163183961,-18.26313475454142
30,1,-13.492887123036121,19.04955163183961,-17.435290469818952
30,2,-13.005236942341627,18.692069770176282,-17.435290469818952
30,3,-13.973757986535766,19.04955163183961,-17.353142121841834
30,4,-13.005236942341627,19.04955163183961,-17.261034703849234
30,5,-13.492887123036121,19.372912923595514,-17.435290469818952
30,6,-13.492887123036121,18.692069770176282,-17.25450579569151
30,7,-13.005236942341627,19.666113718162695,-17.353142121841834
30,8,-13.973757986535766,19.04955163183961,-16.683494610434618
30,9,-12.365077784039997,19.04955163183961,-18.26313475454142
30,10,-12.9159099585793,19.04955163183961,-17.435290469818952
30,11,-13.492887123036121,19.14637950054812,-17.435290469818952
30,12,-13.005236942341627,19.04955163183961,-16.810711091730948
30,13,-13.973757986535766,19.16021506528465,-17.261034703849234
30,14,-13.005236942341627,19.04955163183961,-18.836797633300275
31,0,-13.973757986535766,19.04955163183961,-17.353142121841834
31,1,-13.005236942341627,19.04955163183961,-17.261034703849234
31,2,-13.492887123036121,18.692069770176282,-17.25450579569151
31,3,-13.492887123036121,19.14637950054812,-17.435290469818952
31,4,-13.005236942341627,19.04955163183961,-18.836797633300275
31,5,-13.973757986535766,19.874099686672793,-17.261034703849234
31,6,-13.005236942341627,17.97104416628718,-17.25450579569151
31,7,-12.952344693010012,19.14637950054812,-17.435290469818952
31,8,-13.492887123036121,19.04955163183961,-19.828683106260176
31,9,-12.341911060389904,19.04955163183961,-17.353142121841834
31,10,-13.973757986535766,18.393545368925317,-17.261034703849234
31,11,-13.005236942341627,18.692069770176282,-16.955015139280235
31,12,-12.56051035359309,19.14637950054812,-17.435290469818952
31,13,-13.492887123036121,19.04955163183961,-17.956705000436536
31,14,-13.005236942341627,19.04955163183961,-18.220072065420965
32,0,-13.973757986535766,18.393545368925317,-17.261034703849234
32,1,-13.973757986535766,19.04955163183961,-17.353142121841834
32,2,-13.005236942341627,17.97104416628718,-17.25450579569151
32,3,-13.492887123036121,19.04955163183961,-19.828683106260176
32,4,-12.341911060389904,19.04955163183961,-17.353142121841834
32,5,-13.973757986535766,19.04955163183961,-18.167748906412136
32,6,-13.973757986535766,17.419024155052973,-17.25450579569151
32,7,-13.005236942341627,19.04955163183961,-19.488362979940973
32,8,-14.265440543965553,19.04955163183961,-17.353142121841834
32,9,-12.592682600376051,18.393545368925317,-17.261034703849234
32,10,-13.973757986535766,19.04955163183961,-18.014836224658442
32,11,-13.973757986535766,17.97104416628718,-17.18548924746357
32,12,-12.757754681838323,19.04955163183961,-19.828683106260176
32,13,-13.492887123036121,19.19444386272059,-17.353142121841834
32,14,-12.341911060389904,18.393545368925317,-18.0327380047333
33,0,-13.973757986535766,17.419024155052973,-17.25450579569151
33,1,-13.973757986535766,19.04955163183961,-18.014836224658442
33,2,-13.973757986535766,18.393545368925317,-17.261034703849234
33,3,-12.757754681838323,19.04955163183961,-19.828683106260176
33,4,-12.341911060389904,18.393545368925317,-18.0327380047333
33,5,-14.947886604537544,19.04955163183961,-18.014836224658442
33,6,-14.64000414633774,18.393545368925317,-17.261034703849234
33,7,-14.968920042118462,19.04955163183961,-19.828683106260176
33,8,-12.757754681838323,18.393545368925317,-17.376105402457906
33,9,-12.341911060389904,16.925295107847077,-17.25450579569151
33,10,-13.973757986535766,18.886046125659256,-18.014836224658442
33,11,-13.973757986535766,17.408992686827528,-17.261034703849234
33,12,-13.973757986535766,19.04955163183961,-19.240657754914913
33,13,-13.06596714842653,18.393545368925317,-18.0327380047333
33,14,-12.341911060389904,17.419024155052973,-17.226918402854487
34,0,-13.973757986535766,17.419024155052973,-17.25450579569151
34,1,-13.973757986535766,18.393545368925317,-17.261034703849234
34,2,-14.968920042118462,19.04955163183961,-19.828683106260176
34,3,-13.973757986535766,19.04955163183961,-18.014836224658442
34,4,-12.757754681838323,18.393545368925317,-17.376105402457906
34,5,-13.973757986535766,18.393545368925317,-18.120140156123203
34,6,-14.326435695465221,19.04955163183961,-19.828683106260176
34,7,-15.879289516225793,19.04955163183961,-18.014836224658442
34,8,-13.973757986535766,19.138932328581525,-17.376105402457906
34,9,-12.757754681838323,17.56866782381913,-17.25450579569151
34,10,-13.973757986535766,17.585876406531394,-17.261034703849234
34,11,-13.973757986535766,19.04955163183961,-19.050638274471083
34,12,-14.968920042118462,19.687219708093785,-18.014836224658442
34,13,-14.92431518614923,18.393545368925317,-17.376105402457906
34,14,-12.757754681838323,17.419024155052973,-17.127676120685116
35,0,-13.973757986535766,18.393545368925317,-18.120140156123203
35,1,-12.757754681838323,17.56866782381913,-17.25450579569151
35,2,-13.973757986535766,17.585876406531394,-17.261034703849234
35,3,-13.973757986535766,19.04955163183961,-18.014836224658442
35,4,-13.973757986535766,19.04955163183961,-19.050638274471083
35,5,-13.973757986535766,17.166167161432725,-17.25450579569151
35,6,-12.757754681838323,16.624622346874226,-17.261034703849234
35,7,-14.02809498270582,19.04955163183961,-18.014836224658442
35,8,-14.463284886586397,19.04955163183961,-19.050638274471083
35,9,-13.973757986535766,18.642699925866015,-18.120140156123203
35,10,-13.973757986535766,17.56866782381913,-16.93829864953032
35,11,-12.718745664918305,17.585876406531394,-17.261034703849234
35,12,-14.198707258016194,19.04955163183961,-18.014836224658442
35,13,-13.973757986535766,19.04955163183961,-18.892483736893613
35,14,-13.973757986535766,17.792326273596164,-18.120140156123203
36,0,-12.757754681838323,16.624622346874226,-17.261034703849234
36,1,-13.973757986535766,18.642699925866015,-18.120140156123203
36,2,-13.973757986535766,17.585876406531394,-17.261034703849234
36,3,-13.973757986535766,19.04955163183961,-18.014836224658442
36,4,-13.973757986535766,19.04955163183961,-19.050638274471083
36,5,-12.757754681838323,18.642699925866015,-18.18215136095602
36,6,-13.973757986535766,17.585876406531394,-17.430056099805633
36,7,-13.973757986535766,19.04955163183961,-17.677019466945392
36,8,-13.273674214103233,19.04955163183961,-19.050638274471083
36,9,-13.973757986535766,16.624622346874226,-17.594537571863423
36,10,-12.193103148577976,18.642699925866015,-18.120140156123203
36,11,-13.438264422824235,17.585876406531394,-17.261034703849234
36,12,-13.973757986535766,19.24988883955306,-18.014836224658442
36,13,-14.870244799955636,19.04955163183961,-19.050638274471083
36,14,-13.973757986535766,16.624622346874226,-18.256730524599337
37,0,-12.193103148577976,18.642699925866015,-18.120140156123203
37,1,-13.973757986535766,17.585876406531394,-17.261034703849234
37,2,-13.973757986535766,19.04955163183961,-19.050638274471083
37,3,-12.757754681838323,18.642699925866015,-18.18215136095602
37,4,-13.973757986535766,17.585876406531394,-17.430056099805633
37,5,-12.188592325529171,17.585876406531394,-17.261034703849234
37,6,-13.973757986535766,18.74710539762209,-19.050638274471083
37,7,-12.975900366226442,18.642699925866015,-18.18215136095602
37,8,-12.757754681838323,17.585876406531394,-17.131351209137488
37,9,-13.973757986535766,18.166178385634584,-18.120140156123203
37,10,-12.696402091659897,17.585876406531394,-17.261034703849234
37,11,-13.973757986535766,19.04955163183961,-18.510931967325593
37,12,-13.973757986535766,18.971945498121737,-18.18215136095602
37,13,-12.757754681838323,18.410080640972527,-17.430056099805633
37,14,-13.973757986535766,18.78790696270186,-18.120140156123203
38,0,-13.973757986535766,18.971945498121737,-18.18215136095602
38,1,-13.973757986535766,19.04955163183961,-18.510931967325593
38,2,-13.973757986535766,17.585876406531394,-17.261034703849234
38,3,-12.193103148577976,18.642699925866015,-18.120140156123203
38,4,-13.973757986535766,17.585876406531394,-17.430056099805633
38,5,-13.969563236377756,19.04955163183961,-18.510931967325593
38,6,-14.578590894560712,17.585876406531394,-17.261034703849234
38,7,-13.973757986535766,18.642699925866015,-17.612409280396346
38,8,-12.193103148577976,17.585876406531394,-17.061345227252183
38,9,-13.973757986535766,18.77265643865265,-18.18215136095602
38,10,-13.973757986535766,19.84923976782396,-18.510931967325593
38,11,-13.417590665795643,17.585876406531394,-17.261034703849234
38,12,-13.973757986535766,18.642699925866015,-17.129412575521677
38,13,-12.193103148577976,17.585876406531394,-16.742533030197272
38,14,-13.973757986535766,19.56354819052299,-18.18215136095602
39,0,-12.193103148577976,17.585876406531394,-17.061345227252183
39,1,-13.973757986535766,18.642699925866015,-17.129412575521677
39,2,-13.973757986535766,18.971945498121737,-18.18215136095602
39,3,-13.973757986535766,18.642699925866015,-17.612409280396346
39,4,-13.973757986535766,18.77265643865265,-18.18215136095602
39,5,-12.193103148577976,19.29704349057761,-17.129412575521677
39,6,-13.973757986535766,18.971945498121737,-18.893192552784228
39,7,-13.636580781956289,18.642699925866015,-17.612409280396346
39,8,-13.973757986535766,18.77265643865265,-17.95345975459418
39,9,-14.838618669186584,17.585876406531394,-17.061345227252183
39,10,-11.942352092296668,18.642699925866015,-17.129412575521677
39,11,-13.429585053556519,18.971945498121737,-18.18215136095602
39,12,-14.125233051570728,18.642699925866015,-17.612409280396346
39,13,-13.973757986535766,18.77265643865265,-18.78299168227212
39,14,-13.973757986535766,18.104221720823002,-17.061345227252183
40,0,-13.973757986535766,18.971945498121737,-18.18215136095602
40,1,-13.636580781956289,18.642699925866015,-17.612409280396346
40,2,-14.838618669186584,17.585876406531394,-17.061345227252183
40,3,-12.193103148577976,17.585876406531394,-17.061345227252183
40,4,-13.973757986535766,18.971945498121737,-18.893192552784228
40,5,-14.862232393809354,18.642699925866015,-17.612409280396346
40,6,-13.636580781956289,17.41719461908634,-17.061345227252183
40,7,-14.838618669186584,17.585876406531394,-17.060902131411787
40,8,-12.193103148577976,18.971945498121737,-19.77881202114994
40,9,-13.973757986535766,18.010559412116713,-18.18215136095602
40,10,-13.973757986535766,18.642699925866015,-16.76547500421442
40,11,-13.636580781956289,17.585876406531394,-17.41079353405261
40,12,-14.838618669186584,16.708447497068732,-17.061345227252183
40,13,-11.580614570812479,18.971945498121737,-18.893192552784228
40,14,-13.973757986535766,18.755633000374388,-18.18215136095602
41,0,-13.973757986535766,18.010559412116713,-18.18215136095602
41,1,-13.973757986535766,18.642699925866015,-16.76547500421442
41,2,-13.636580781956289,18.642699925866015,-17.612409280396346
41,3,-13.973757986535766,18.971945498121737,-18.18215136095602
41,4,-12.193103148577976,17.585876406531394,-17.061345227252183
41,5,-13.81961220694625,18.642699925866015,-16.76547500421442
41,6,-13.973757986535766,19.028049231332485,-17.612409280396346
41,7,-13.636580781956289,18.235591435546002,-18.18215136095602
41,8,-13.973757986535766,17.585876406531394,-17.927194284707287
41,9,-12.193103148577976,18.010559412116713,-18.279804917720433
41,10,-13.426506313567664,18.642699925866015,-16.76547500421442
41,11,-13.02682063542833,18.642699925866015,-17.612409280396346
41,12,-13.636580781956289,19.69067018798971,-18.18215136095602
41,13,-14.516858656979263,17.585876406531394,-17.061345227252183
41,14,-12.193103148577976,18.763524052675407,-18.18215136095602
42,0,-13.636580781956289,18.235591435546002,-18.18215136095602
42,1,-12.193103148577976,18.010559412116713,-18.279804917720433
42,2,-13.973757986535766,18.010559412116713,-18.18215136095602
42,3,-13.636580781956289,18.642699925866015,-17.612409280396346
42,4,-13.81961220694625,18.642699925866015,-16.76547500421442
42,5,-13.636580781956289,18.010559412116713,-17.839732499116554
42,6,-12.724644545209165,18.010559412116713,-18.18215136095602
42,7,-13.973757986535766,18.642699925866015,-17.200729061282953
42,8,-14.169447187913406,18.642699925866015,-16.76547500421442
42,9,-13.81961220694625,17.576764553769245,-18.18215136095602
42,10,-13.636580781956289,18.21952746886454,-18.279804917720433
42,11,-12.193103148577976,18.102449994031033,-18.18215136095602
42,12,-13.973757986535766,18.642699925866015,-17.814342052750828
42,13,-13.636580781956289,19.41941606485413,-16.76547500421442
42,14,-13.81961220694625,18.235591435546002,-19.175476995219192
43,0,-13.81961220694625,17.576764553769245,-18.18215136095602
43,1,-12.193103148577976,18.010559412116713,-18.279804917720433
43,2,-13.636580781956289,18.010559412116713,-17.839732499116554
43,3,-12.724644545209165,18.010559412116713,-18.18215136095602
43,4,-13.973757986535766,18.642699925866015,-17.200729061282953
43,5,-13.634374467478903,18.010559412116713,-18.279804917720433
43,6,-11.483133800401568,18.010559412116713,-17.839732499116554
43,7,-12.960454436650775,18.010559412116713,-18.18215136095602
43,8,-12.724644545209165,19.07627864550537,-17.200729061282953
43,9,-13.365472545246735,17.576764553769245,-18.18215136095602
43,10,-13.81961220694625,18.358155619063428,-18.279804917720433
43,11,-12.035518521803475,18.010559412116713,-17.839732499116554
43,12,-13.636580781956289,18.010559412116713,-18.483342548886228
43,13,-12.724644545209165,18.642699925866015,-16.259834472890713
43,14,-13.973757986535766,17.6660367059895,-18.18215136095602
44,0,-12.960454436650775,18.010559412116713,-18.18215136095602
44,1,-11.483133800401568,18.010559412116713,-17.839732499116554
44,2,-13.81961220694625,18.358155619063428,-18.279804917720433
44,3,-13.973757986535766,17.6660367059895,-18.18215136095602
44,4,-13.81961220694625,17.576764553769245,-18.18215136095602
44,5,-12.960454436650775,18.010559412116713,-18.32580654446066
44,6,-11.483133800401568,18.358155619063428,-17.580052039372614
44,7,-13.81961220694625,17.6660367059895,-17.69488967927496
44,8,-13.973757986535766,17.576764553769245,-18.907954024391735
44,9,-14.70585565359066,18.010559412116713,-18.18215136095602
44,10,-12.960454436650775,17.938882524113385,-17.839732499116554
44,11,-11.639917341292717,18.358155619063428,-18.279804917720433
44,12,-13.81961220694625,17.6660367059895,-17.99534845709498
44,13,-13.42415201203193,17.576764553769245,-18.18215136095602
44,14,-13.81961220694625,17.35390052377165,-18.18215136095602
45,0,-13.973757986535766,17.576764553769245,-18.907954024391735
45,1,-11.483133800401568,18.010559412116713,-17.839732499116554
45,2,-13.81961220694625,17.576764553769245,-18.18215136095602
45,3,-12.960454436650775,18.010559412116713,-18.32580654446066
45,4,-13.81961220694625,17.35390052377165,-18.18215136095602
45,5,-13.973757986535766,18.010559412116713,-17.774673879747475
45,6,-11.483133800401568,17.272251738809647,-18.18215136095602
45,7,-13.81961220694625,17.379067768807616,-18.32580654446066
45,8,-13.39622948949106,17.35390052377165,-18.18215136095602
45,9,-14.060282800092045,17.576764553769245,-18.907954024391735
45,10,-13.973757986535766,18.010559412116713,-18.74397495164895
45,11,-11.483133800401568,17.576764553769245,-18.868623691790166
45,12,-13.81961220694625,18.80325950293902,-18.32580654446066
45,13,-12.960454436650775,17.35390052377165,-18.846364152924664
45,14,-13.81961220694625,16.663409993287086,-18.907954024391735
46,0,-11.483133800401568,17.272251738809647,-18.18215136095602
46,1,-13.973757986535766,17.576764553769245,-18.907954024391735
46,2,-11.483133800401568,18.010559412116713,-17.839732499116554
46,3,-13.81961220694625,17.576764553769245,-18.18215136095602
46,4,-13.81961220694625,17.35390052377165,-18.18215136095602
46,5,-11.483133800401568,16.995799158432558,-18.907954024391735
46,6,-13.973757986535766,18.700290500666725,-17.839732499116554
46,7,-11.483133800401568,17.576764553769245,-18.044027560820304
46,8,-13.546635004095492,17.35390052377165,-18.18215136095602
46,9,-13.81961220694625,17.272251738809647,-18.642098176583207
46,10,-11.483133800401568,17.576764553769245,-19.006241936432357
46,11,-13.396373802627076,18.010559412116713,-17.839732499116554
46,12,-11.426667730917346,17.576764553769245,-18.18215136095602
46,13,-13.81961220694625,17.35390052377165,-17.604538221795526
46,14,-14.494246708731577,17.272251738809647,-18.18215136095602
47,0,-11.483133800401568,16.995799158432558,-18.907954024391735
47,1,-13.546635004095492,17.35390052377165,-18.18215136095602
47,2,-11.426667730917346,17.576764553769245,-18.18215136095602
47,3,-13.81961220694625,17.35390052377165,-17.604538221795526
47,4,-13.973757986535766,17.576764553769245,-18.907954024391735
47,5,-11.483133800401568,17.35390052377165,-18.390371955897365
47,6,-13.546635004095492,16.713172633732203,-18.18215136095602
47,7,-11.426667730917346,16.721538032538742,-17.604538221795526
47,8,-14.085348213119847,17.576764553769245,-18.907954024391735
47,9,-14.349425413597825,16.995799158432558,-18.907954024391735
47,10,-11.483133800401568,17.82428526689219,-18.18215136095602
47,11,-12.939981394408939,17.576764553769245,-18.18215136095602
47,12,-11.426667730917346,17.35390052377165,-17.307896169409812
47,13,-13.81961220694625,17.576764553769245,-19.013603761857436
47,14,-13.973757986535766,16.995799158432558,-19.10529406077054
48,0,-11.483133800401568,16.995799158432558,-18.907954024391735
48,1,-13.546635004095492,17.35390052377165,-18.18215136095602
48,2,-11.426667730917346,16.721538032538742,-17.604538221795526
48,3,-14.349425413597825,16.995799158432558,-18.907954024391735
48,4,-11.426667730917346,17.576764553769245,-18.18215136095602
48,5,-10.641275676272253,17.35390052377165,-18.18215136095602
48,6,-12.801436300528593,16.721538032538742,-17.604538221795526
48,7,-11.426667730917346,16.675995151082923,-18.907954024391735
48,8,-14.604659174407134,17.576764553769245,-18.18215136095602
48,9,-11.426667730917346,15.997153866537833,-18.907954024391735
48,10,-11.483133800401568,17.35390052377165,-17.52864824299134
48,11,-12.979351222017915,16.721538032538742,-17.604538221795526
48,12,-11.426667730917346,16.995799158432558,-19.09340523809519
48,13,-14.349425413597825,17.576764553769245,-17.98984877994646
48,14,-11.426667730917346,17.345054743060807,-18.907954024391735
49,0,-11.483133800401568,16.995799158432558,-18.907954024391735
49,1,-11.426667730917346,16.675995151082923,-18.907954024391735
49,2,-14.604659174407134,17.576764553769245,-18.18215136095602
49,3,-14.349425413597825,17.576764553769245,-17.98984877994646
49,4,-11.426667730917346,16.721538032538742,-17.604538221795526
49,5,-11.483133800401568,16.675995151082923,-19.393803301552435
49,6,-11.624773361686593,17.576764553769245,-18.18215136095602
49,7,-14.604659174407134,17.576764553769245,-17.12618190367185
49,8,-14.349425413597825,16.721538032538742,-17.61311710632758
49,9,-11.058691719933801,16.995799158432558,-18.907954024391735
49,10,-10.717431137272694,16.675995151082923,-18.907954024391735
49,11,-11.426667730917346,16.960801411555828,-18.18215136095602
49,12,-14.604659174407134,17.576764553769245,-17.547203224945864
49,13,-14.349425413597825,15.748388244974581,-17.604538221795526
49,14,-11.426667730917346,16.419526462697416,-18.907954024391735
50,0,-11.426667730917346,16.960801411555828,-18.18215136095602
50,1,-14.604659174407134,17.576764553769245,-17.12618190367185
50,2,-14.604659174407134,17.576764553769245,-18.18215136095602
50,3,-11.426667730917346,16.721538032538742,-17.604538221795526
50,4,-14.349425413597825,17.576764553769245,-17.98984877994646
50,5,-11.426667730917346,17.576764553769245,-16.20488349492531
50,6,-15.046117207574957,17.576764553769245,-18.18215136095602
50,7,-13.788044618950245,16.721538032538742,-17.604538221795526
50,8,-11.426667730917346,17.576764553769245,-18.37101257101444
50,9,-14.349425413597825,16.485541885032227,-18.18215136095602
50,10,-11.426667730917346,18.55687975410214,-17.12618190367185
50,11,-14.586043020108585,17.576764553769245,-18.18215136095602
50,12,-14.910758325431377,16.721538032538742,-17.604538221795526
50,13,-11.426667730917346,17.576764553769245,-18.797514022431358
50,14,-14.466152961153643,16.960801411555828,-18.18215136095602
51,0,-14.604659174407134,17.576764553769245,-18.18215136095602
51,1,-11.426667730917346,17.576764553769245,-18.37101257101444
51,2,-11.426667730917346,17.576764553769245,-16.20488349492531
51,3,-14.586043020108585,17.576764553769245,-18.18215136095602
51,4,-14.466152961153643,16.960801411555828,-18.18215136095602
51,5,-14.604659174407134,17.37477491600332,-18.37101257101444
51,6,-11.426667730917346,17.576764553769245,-16.445973958539106
51,7,-12.203508185550572,17.576764553769245,-18.18215136095602
51,8,-14.586043020108585,17.529563083438077,-18.18215136095602
51,9,-14.466152961153643,17.576764553769245,-17.21357886738783
51,10,-14.604659174407134,17.576764553769245,-17.613870475699247
51,11,-11.630175460670495,17.576764553769245,-16.20488349492531
51,12,-11.845888998694676,17.576764553769245,-18.18215136095602
51,13,-14.586043020108585,16.960801411555828,-17.982774820160405
51,14,-14.289646275302943,17.576764553769245,-18.18215136095602
52,0,-14.466152961153643,17.576764553769245,-17.21357886738783
52,1,-14.289646275302943,17.576764553769245,-18.18215136095602
52,2,-14.604659174407134,17.37477491600332,-18.37101257101444
52,3,-11.426667730917346,17.576764553769245,-16.20488349492531
52,4,-14.586043020108585,17.529563083438077,-18.18215136095602
52,5,-14.466152961153643,18.084595698484517,-18.18215136095602
52,6,-15.059103154479995,17.37477491600332,-18.37101257101444
52,7,-14.604659174407134,17.56916371491137,-16.20488349492531
52,8,-12.41816945206709,17.529563083438077,-18.18215136095602
52,9,-13.749685699965484,17.576764553769245,-17.21357886738783
52,10,-14.466152961153643,17.503120390791445,-18.18215136095602
52,11,-14.104708712954187,17.37477491600332,-18.37101257101444
52,12,-14.604659174407134,16.686045837326077,-16.20488349492531
52,13,-11.426667730917346,17.942354748762178,-18.18215136095602
52,14,-14.586043020108585,17.576764553769245,-17.33422594302091
53,0,-11.426667730917346,17.942354748762178,-18.18215136095602
53,1,-14.466152961153643,17.576764553769245,-17.21357886738783
53,2,-14.604659174407134,17.37477491600332,-18.37101257101444
53,3,-11.426667730917346,17.576764553769245,-16.20488349492531
53,4,-14.604659174407134,17.56916371491137,-16.20488349492531
53,5,-11.426667730917346,17.925294225829028,-17.21357886738783
53,6,-14.018077170728251,17.37477491600332,-18.37101257101444
53,7,-14.604659174407134,17.576764553769245,-17.142369395633054
53,8,-11.426667730917346,16.764964442070163,-16.20488349492531
53,9,-14.604659174407134,17.942354748762178,-18.625958143785404
53,10,-11.426667730917346,17.576764553769245,-18.064790531289113
53,11,-13.990030264649901,17.37477491600332,-18.37101257101444
53,12,-14.859810335555556,17.576764553769245,-16.20488349492531
53,13,-11.426667730917346,17.94898132395324,-16.20488349492531
53,14,-14.604659174407134,17.942354748762178,-18.940961840471044
54,0,-14.466152961153643,17.576764553769245,-17.21357886738783
54,1,-11.426667730917346,17.576764553769245,-18.064790531289113
54,2,-11.426667730917346,17.94898132395324,-16.20488349492531
54,3,-14.604659174407134,17.37477491600332,-18.37101257101444
54,4,-14.604659174407134,17.942354748762178,-18.940961840471044
54,5,-14.466152961153643,17.885461334789802,-18.064790531289113
54,6,-11.55956550989137,17.94898132395324,-16.20488349492531
54,7,-11.607604883550948,17.37477491600332,-18.37101257101444
54,8,-14.604659174407134,17.73798838299099,-18.940961840471044
54,9,-14.604659174407134,17.576764553769245,-18.166215426085877
54,10,-14.466152961153643,17.15613504971977,-18.064790531289113
54,11,-11.426667730917346,17.69125185129074,-16.20488349492531
54,12,-11.426667730917346,16.597125814789973,-18.37101257101444
54,13,-14.83692550374568,17.942354748762178,-18.940961840471044
54,14,-14.604659174407134,17.576764553769245,-17.28380038157437
55,0,-14.466152961153643,17.885461334789802,-18.064790531289113
55,1,-14.604659174407134,17.942354748762178,-18.940961840471044
55,2,-11.607604883550948,17.37477491600332,-18.37101257101444
55,3,-14.466152961153643,17.15613504971977,-18.064790531289113
55,4,-11.426667730917346,17.576764553769245,-18.064790531289113
55,5,-14.466152961153643,17.942354748762178,-18.22494527605628
55,6,-14.239408625363936,17.37477491600332,-18.37101257101444
55,7,-12.47607188471617,17.15613504971977,-18.064790531289113
55,8,-14.466152961153643,17.576764553769245,-17.182377099557232
55,9,-11.426667730917346,17.909847015377878,-18.064790531289113
55,10,-14.466152961153643,17.942354748762178,-18.33314602341001
55,11,-15.365974256629551,17.37477491600332,-18.37101257101444
55,12,-11.607604883550948,17.100336650815116,-18.064790531289113
55,13,-13.963436359895155,17.576764553769245,-18.064790531289113
55,14,-11.426667730917346,17.56086769590803,-18.064790531289113
56,0,-14.466152961153643,17.885461334789802,-18.064790531289113
56,1,-14.604659174407134,17.942354748762178,-18.940961840471044
56,2,-14.466152961153643,17.15613504971977,-18.064790531289113
56,3,-13.963436359895155,17.576764553769245,-18.064790531289113
56,4,-11.426667730917346,17.56086769590803,-18.064790531289113
56,5,-14.466152961153643,17.942354748762178,-18.685790409784836
56,6,-14.604659174407134,17.15613504971977,-18.450732358571152
56,7,-13.94153274430544,17.576764553769245,-18.064790531289113
56,8,-13.963436359895155,17.56086769590803,-18.126157204465017
56,9,-11.426667730917346,17.885461334789802,-17.656362559883746
56,10,-14.466152961153643,18.78371414538742,-18.940961840471044
56,11,-14.089422547406764,17.15613504971977,-18.064790531289113
56,12,-14.466152961153643,17.576764553769245,-18.573742635335087
56,13,-13.573914870005522,17.56086769590803,-18.064790531289113
56,14,-11.426667730917346,17.885461334789802,-18.17554661492892
57,0,-11.426667730917346,17.56086769590803,-18.064790531289113
57,1,-13.963436359895155,17.576764553769245,-18.064790531289113
57,2,-14.466152961153643,17.942354748762178,-18.685790409784836
57,3,-13.94153274430544,17.576764553769245,-18.064790531289113
57,4,-13.963436359895155,17.56086769590803,-18.126157204465017
57,5,-11.426667730917346,17.122202292237468,-18.064790531289113
57,6,-14.21860589992053,17.942354748762178,-18.685790409784836
57,7,-14.466152961153643,17.576764553769245,-17.39582349856482
57,8,-13.94153274430544,16.698208656897684,-18.126157204465017
57,9,-13.644277972326279,17.56086769590803,-18.064790531289113
57,10,-11.938303116582567,17.576764553769245,-18.064790531289113
57,11,-13.963436359895155,18.14581099879277,-18.685790409784836
57,12,-14.466152961153643,18.03720661392766,-18.064790531289113
57,13,-13.94153274430544,17.56086769590803,-17.4736474445027
57,14,-13.963436359895155,17.318543843041663,-18.064790531289113
58,0,-14.466152961153643,17.942354748762178,-18.685790409784836
58,1,-13.963436359895155,18.14581099879277,-18.685790409784836
58,2,-11.426667730917346,17.122202292237468,-18.064790531289113
58,3,-14.21860589992053,17.942354748762178,-18.685790409784836
58,4,-14.466152961153643,18.03720661392766,-18.064790531289113
58,5,-14.930535810171374,18.14581099879277,-18.685790409784836
58,6,-13.963436359895155,17.122202292237468,-17.983039161428902
58,7,-11.426667730917346,18.69358415963819,-18.685790409784836
58,8,-14.21860589992053,18.03720661392766,-17.578558971410597
58,9,-14.466152961153643,16.953507496090293,-18.685790409784836
58,10,-14.466152961153643,18.14581099879277,-18.070836139244904
58,11,-13.963436359895155,17.122202292237468,-18.916246575420654
58,12,-11.426667730917346,17.942354748762178,-18.03328152116948
58,13,-14.21860589992053,18.03720661392766,-18.084552299700192
58,14,-14.466152961153643,17.942354748762178,-19.39186272853755
59,0,-14.21860589992053,18.03720661392766,-17.578558971410597
59,1,-14.466152961153643,17.942354748762178,-19.39186272853755
59,2,-14.466152961153643,17.942354748762178,-18.685790409784836
59,3,-11.426667730917346,18.69358415963819,-18.685790409784836
59,4,-14.466152961153643,16.953507496090293,-18.685790409784836
59,5,-14.21860589992053,17.287060688839066,-19.39186272853755
59,6,-13.974481411237214,17.942354748762178,-18.685790409784836
59,7,-14.466152961153643,18.69358415963819,-18.214325139119776
59,8,-11.426667730917346,16.59757223817529,-18.685790409784836
59,9,-14.466152961153643,18.955481651958227,-17.578558971410597
59,10,-14.21860589992053,17.942354748762178,-20.31991609368177
59,11,-13.820707060469147,17.942354748762178,-18.685790409784836
59,12,-14.466152961153643,18.71216121989478,-18.685790409784836
59,13,-10.615186916807014,16.953507496090293,-18.685790409784836
59,14,-14.466152961153643,18.03720661392766,-17.992688648834427
60,0,-14.21860589992053,17.942354748762178,-20.31991609368177
60,1,-14.466152961153643,17.942354748762178,-19.39186272853755
60,2,-14.21860589992053,17.287060688839066,-19.39186272853755
60,3,-13.820707060469147,17.942354748762178,-18.685790409784836
60,4,-11.426667730917346,18.69358415963819,-18.685790409784836
60,5,-14.21860589992053,17.942354748762178,-20.293511330341808
60,6,-14.466152961153643,17.754811030030616,-19.39186272853755
60,7,-14.21860589992053,18.801877384781847,-18.685790409784836
60,8,-13.820707060469147,17.83748967735535,-18.685790409784836
60,9,-11.426667730917346,18.850916686951624,-20.31991609368177
60,10,-14.856298292646661,17.942354748762178,-19.39186272853755
60,11,-14.466152961153643,17.21947421414003,-19.39186272853755
60,12,-14.21860589992053,17.08294033410575,-18.685790409784836
60,13,-12.905128633770165,18.69358415963819,-18.685790409784836
60,14,-10.460260858344807,17.942354748762178,-20.31991609368177
61,0,-14.21860589992053,17.287060688839066,-19.39186272853755
61,1,-14.466152961153643,17.942354748762178,-19.39186272853755
61,2,-13.820707060469147,17.942354748762178,-18.685790409784836
61,3,-13.820707060469147,17.83748967735535,-18.685790409784836
61,4,-14.856298292646661,17.942354748762178,-19.39186272853755
61,5,-14.21860589992053,18.176767090458227,-19.39186272853755
61,6,-14.466152961153643,17.942354748762178,-18.13424854608475
61,7,-14.504965121802632,17.83748967735535,-18.685790409784836
61,8,-13.77067419685878,17.942354748762178,-19.39186272853755
61,9,-14.856298292646661,17.287060688839066,-20.340880637474783
61,10,-13.694779738235209,17.942354748762178,-19.39186272853755
61,11,-14.94539010097395,17.942354748762178,-18.685790409784836
61,12,-13.820707060469147,17.588542101191106,-18.685790409784836
61,13,-13.820707060469147,18.649066318665522,-19.39186272853755
61,14,-14.032198422232575,17.287060688839066,-19.39186272853755
62,0,-14.032198422232575,17.287060688839066,-19.39186272853755
62,1,-13.820707060469147,17.942354748762178,-18.685790409784836
62,2,-14.856298292646661,17.942354748762178,-19.39186272853755
62,3,-14.21860589992053,18.176767090458227,-19.39186272853755
62,4,-13.820707060469147,18.649066318665522,-19.39186272853755
62,5,-13.281327732614358,17.942354748762178,-18.685790409784836
62,6,-13.820707060469147,17.942354748762178,-19.63222369897978
62,7,-14.856298292646661,18.839731855123226,-19.39186272853755
62,8,-14.9179012098925,18.649066318665522,-19.39186272853755
62,9,-13.820707060469147,17.01225984500781,-19.39186272853755
62,10,-14.032198422232575,17.942354748762178,-17.843846966333153
62,11,-13.820707060469147,17.933493658045524,-19.39186272853755
62,12,-14.856298292646661,18.176767090458227,-18.47649788050331
62,13,-14.21860589992053,18.649066318665522,-18.73400713340944
62,14,-14.4195918498251,17.287060688839066,-19.39186272853755
63,0,-14.032198422232575,17.287060688839066,-19.39186272853755
63,1,-13.820707060469147,17.942354748762178,-19.63222369897978
63,2,-13.820707060469147,17.942354748762178,-18.685790409784836
63,3,-14.856298292646661,18.839731855123226,-19.39186272853755
63,4,-14.856298292646661,18.176767090458227,-18.47649788050331
63,5,-13.99546100898512,17.942354748762178,-19.63222369897978
63,6,-13.820707060469147,17.942354748762178,-19.08086752933185
63,7,-14.453687873501716,18.839731855123226,-19.39186272853755
63,8,-14.856298292646661,17.506213655184034,-18.47649788050331
63,9,-14.856298292646661,17.87748335041302,-19.39186272853755
63,10,-14.032198422232575,17.942354748762178,-19.34622113826081
63,11,-13.847405608977226,17.942354748762178,-18.685790409784836
63,12,-13.224324013657323,18.839731855123226,-19.39186272853755
63,13,-14.856298292646661,17.67799032408078,-18.47649788050331
63,14,-14.856298292646661,17.287060688839066,-19.19530845233575
